digraph Tree {
node [shape=box] ;
0 [label="上市时间 <= -1.192\ngini = 0.223\nsamples = 18805\nvalue = [16405, 2400]\nclass = 是"] ;
1 [label="年份（年末） <= 6.192\ngini = 0.395\nsamples = 1994\nvalue = [1454, 540]\nclass = 是"] ;
0 -> 1 [labeldistance=2.5, labelangle=45, headlabel="True"] ;
2 [label="上市时间 <= -1.258\ngini = 0.453\nsamples = 1556\nvalue = [1016, 540]\nclass = 是"] ;
1 -> 2 ;
3 [label="每股净资产(元/股) <= -0.522\ngini = 0.494\nsamples = 544\nvalue = [302, 242]\nclass = 是"] ;
2 -> 3 ;
4 [label="每股净资产(元/股) <= -0.568\ngini = 0.398\nsamples = 84\nvalue = [61, 23]\nclass = 是"] ;
3 -> 4 ;
5 [label="每股现金流量净额(元/股) <= -0.776\ngini = 0.342\nsamples = 64\nvalue = [50, 14]\nclass = 是"] ;
4 -> 5 ;
6 [label="gini = 0.0\nsamples = 1\nvalue = [0, 1]\nclass = 否"] ;
5 -> 6 ;
7 [label="每股现金流量净额(元/股) <= -0.585\ngini = 0.328\nsamples = 63\nvalue = [50, 13]\nclass = 是"] ;
5 -> 7 ;
8 [label="gini = 0.0\nsamples = 1\nvalue = [0, 1]\nclass = 否"] ;
7 -> 8 ;
9 [label="近两年送转比例 <= 0.474\ngini = 0.312\nsamples = 62\nvalue = [50, 12]\nclass = 是"] ;
7 -> 9 ;
10 [label="预增或预减 <= -0.157\ngini = 0.296\nsamples = 61\nvalue = [50, 11]\nclass = 是"] ;
9 -> 10 ;
11 [label="gini = 0.0\nsamples = 8\nvalue = [8, 0]\nclass = 是"] ;
10 -> 11 ;
12 [label="营业总收入同必增长(%) <= -0.008\ngini = 0.329\nsamples = 53\nvalue = [42, 11]\nclass = 是"] ;
10 -> 12 ;
13 [label="超涨或超跌 <= 0.83\ngini = 0.25\nsamples = 41\nvalue = [35, 6]\nclass = 是"] ;
12 -> 13 ;
14 [label="营业总收入同必增长(%) <= -0.009\ngini = 0.175\nsamples = 31\nvalue = [28, 3]\nclass = 是"] ;
13 -> 14 ;
15 [label="gini = 0.0\nsamples = 11\nvalue = [11, 0]\nclass = 是"] ;
14 -> 15 ;
16 [label="预增或预减 <= 0.634\ngini = 0.255\nsamples = 20\nvalue = [17, 3]\nclass = 是"] ;
14 -> 16 ;
17 [label="每股净资产(元/股) <= -0.66\ngini = 0.375\nsamples = 12\nvalue = [9, 3]\nclass = 是"] ;
16 -> 17 ;
18 [label="营业总收入同必增长(%) <= -0.008\ngini = 0.469\nsamples = 8\nvalue = [5, 3]\nclass = 是"] ;
17 -> 18 ;
19 [label="gini = 0.408\nsamples = 7\nvalue = [5, 2]\nclass = 是"] ;
18 -> 19 ;
20 [label="gini = 0.0\nsamples = 1\nvalue = [0, 1]\nclass = 否"] ;
18 -> 20 ;
21 [label="gini = 0.0\nsamples = 4\nvalue = [4, 0]\nclass = 是"] ;
17 -> 21 ;
22 [label="gini = 0.0\nsamples = 8\nvalue = [8, 0]\nclass = 是"] ;
16 -> 22 ;
23 [label="交易日平均价 <= -0.8\ngini = 0.42\nsamples = 10\nvalue = [7, 3]\nclass = 是"] ;
13 -> 23 ;
24 [label="gini = 0.0\nsamples = 1\nvalue = [0, 1]\nclass = 否"] ;
23 -> 24 ;
25 [label="近两年送转比例 <= -0.669\ngini = 0.346\nsamples = 9\nvalue = [7, 2]\nclass = 是"] ;
23 -> 25 ;
26 [label="gini = 0.0\nsamples = 5\nvalue = [5, 0]\nclass = 是"] ;
25 -> 26 ;
27 [label="年份（年末） <= 5.096\ngini = 0.5\nsamples = 4\nvalue = [2, 2]\nclass = 是"] ;
25 -> 27 ;
28 [label="gini = 0.0\nsamples = 1\nvalue = [1, 0]\nclass = 是"] ;
27 -> 28 ;
29 [label="每股现金流量净额(元/股) <= -0.111\ngini = 0.444\nsamples = 3\nvalue = [1, 2]\nclass = 否"] ;
27 -> 29 ;
30 [label="gini = 0.0\nsamples = 2\nvalue = [0, 2]\nclass = 否"] ;
29 -> 30 ;
31 [label="gini = 0.0\nsamples = 1\nvalue = [1, 0]\nclass = 是"] ;
29 -> 31 ;
32 [label="年份（年末） <= 1.509\ngini = 0.486\nsamples = 12\nvalue = [7, 5]\nclass = 是"] ;
12 -> 32 ;
33 [label="每股资本公积(元/股)+每股未分配利润(元/股) <= -0.641\ngini = 0.5\nsamples = 10\nvalue = [5, 5]\nclass = 是"] ;
32 -> 33 ;
34 [label="每股收益(期末摊薄，元/股) <= 0.025\ngini = 0.469\nsamples = 8\nvalue = [3, 5]\nclass = 否"] ;
33 -> 34 ;
35 [label="gini = 0.0\nsamples = 2\nvalue = [2, 0]\nclass = 是"] ;
34 -> 35 ;
36 [label="实收资本(或股本) <= -0.128\ngini = 0.278\nsamples = 6\nvalue = [1, 5]\nclass = 否"] ;
34 -> 36 ;
37 [label="gini = 0.0\nsamples = 1\nvalue = [1, 0]\nclass = 是"] ;
36 -> 37 ;
38 [label="gini = 0.0\nsamples = 5\nvalue = [0, 5]\nclass = 否"] ;
36 -> 38 ;
39 [label="gini = 0.0\nsamples = 2\nvalue = [2, 0]\nclass = 是"] ;
33 -> 39 ;
40 [label="gini = 0.0\nsamples = 2\nvalue = [2, 0]\nclass = 是"] ;
32 -> 40 ;
41 [label="gini = 0.0\nsamples = 1\nvalue = [0, 1]\nclass = 否"] ;
9 -> 41 ;
42 [label="每股现金流量净额(元/股) <= 0.037\ngini = 0.495\nsamples = 20\nvalue = [11, 9]\nclass = 是"] ;
4 -> 42 ;
43 [label="交易日平均价 <= -0.526\ngini = 0.346\nsamples = 9\nvalue = [7, 2]\nclass = 是"] ;
42 -> 43 ;
44 [label="交易日平均价 <= -0.628\ngini = 0.444\nsamples = 6\nvalue = [4, 2]\nclass = 是"] ;
43 -> 44 ;
45 [label="超涨或超跌 <= 0.764\ngini = 0.32\nsamples = 5\nvalue = [4, 1]\nclass = 是"] ;
44 -> 45 ;
46 [label="gini = 0.0\nsamples = 4\nvalue = [4, 0]\nclass = 是"] ;
45 -> 46 ;
47 [label="gini = 0.0\nsamples = 1\nvalue = [0, 1]\nclass = 否"] ;
45 -> 47 ;
48 [label="gini = 0.0\nsamples = 1\nvalue = [0, 1]\nclass = 否"] ;
44 -> 48 ;
49 [label="gini = 0.0\nsamples = 3\nvalue = [3, 0]\nclass = 是"] ;
43 -> 49 ;
50 [label="每股净资产(元/股) <= -0.531\ngini = 0.463\nsamples = 11\nvalue = [4, 7]\nclass = 否"] ;
42 -> 50 ;
51 [label="近两年送转比例 <= -0.738\ngini = 0.5\nsamples = 8\nvalue = [4, 4]\nclass = 是"] ;
50 -> 51 ;
52 [label="每股收益(期末摊薄，元/股) <= 0.996\ngini = 0.444\nsamples = 6\nvalue = [4, 2]\nclass = 是"] ;
51 -> 52 ;
53 [label="每股资本公积(元/股)+每股未分配利润(元/股) <= -0.567\ngini = 0.32\nsamples = 5\nvalue = [4, 1]\nclass = 是"] ;
52 -> 53 ;
54 [label="超涨或超跌 <= 0.603\ngini = 0.444\nsamples = 3\nvalue = [2, 1]\nclass = 是"] ;
53 -> 54 ;
55 [label="gini = 0.0\nsamples = 2\nvalue = [2, 0]\nclass = 是"] ;
54 -> 55 ;
56 [label="gini = 0.0\nsamples = 1\nvalue = [0, 1]\nclass = 否"] ;
54 -> 56 ;
57 [label="gini = 0.0\nsamples = 2\nvalue = [2, 0]\nclass = 是"] ;
53 -> 57 ;
58 [label="gini = 0.0\nsamples = 1\nvalue = [0, 1]\nclass = 否"] ;
52 -> 58 ;
59 [label="gini = 0.0\nsamples = 2\nvalue = [0, 2]\nclass = 否"] ;
51 -> 59 ;
60 [label="gini = 0.0\nsamples = 3\nvalue = [0, 3]\nclass = 否"] ;
50 -> 60 ;
61 [label="每股净资产(元/股) <= 1.131\ngini = 0.499\nsamples = 460\nvalue = [241, 219]\nclass = 是"] ;
3 -> 61 ;
62 [label="实收资本(或股本) <= 0.094\ngini = 0.497\nsamples = 441\nvalue = [237, 204]\nclass = 是"] ;
61 -> 62 ;
63 [label="营业总收入同必增长(%) <= -0.008\ngini = 0.499\nsamples = 429\nvalue = [226, 203]\nclass = 是"] ;
62 -> 63 ;
64 [label="每股净资产(元/股) <= -0.026\ngini = 0.49\nsamples = 297\nvalue = [169, 128]\nclass = 是"] ;
63 -> 64 ;
65 [label="实收资本(或股本) <= -0.081\ngini = 0.461\nsamples = 161\nvalue = [103, 58]\nclass = 是"] ;
64 -> 65 ;
66 [label="每股收益(期末摊薄，元/股) <= 0.008\ngini = 0.474\nsamples = 150\nvalue = [92, 58]\nclass = 是"] ;
65 -> 66 ;
67 [label="gini = 0.0\nsamples = 12\nvalue = [12, 0]\nclass = 是"] ;
66 -> 67 ;
68 [label="每股净资产(元/股) <= -0.343\ngini = 0.487\nsamples = 138\nvalue = [80, 58]\nclass = 是"] ;
66 -> 68 ;
69 [label="实收资本(或股本) <= -0.089\ngini = 0.444\nsamples = 42\nvalue = [28, 14]\nclass = 是"] ;
68 -> 69 ;
70 [label="实收资本(或股本) <= -0.114\ngini = 0.433\nsamples = 41\nvalue = [28, 13]\nclass = 是"] ;
69 -> 70 ;
71 [label="每股净资产(元/股) <= -0.442\ngini = 0.467\nsamples = 35\nvalue = [22, 13]\nclass = 是"] ;
70 -> 71 ;
72 [label="次新股 <= 0.978\ngini = 0.298\nsamples = 11\nvalue = [9, 2]\nclass = 是"] ;
71 -> 72 ;
73 [label="gini = 0.18\nsamples = 10\nvalue = [9, 1]\nclass = 是"] ;
72 -> 73 ;
74 [label="gini = 0.0\nsamples = 1\nvalue = [0, 1]\nclass = 否"] ;
72 -> 74 ;
75 [label="每股资本公积(元/股)+每股未分配利润(元/股) <= -0.434\ngini = 0.497\nsamples = 24\nvalue = [13, 11]\nclass = 是"] ;
71 -> 75 ;
76 [label="gini = 0.278\nsamples = 6\nvalue = [1, 5]\nclass = 否"] ;
75 -> 76 ;
77 [label="gini = 0.444\nsamples = 18\nvalue = [12, 6]\nclass = 是"] ;
75 -> 77 ;
78 [label="gini = 0.0\nsamples = 6\nvalue = [6, 0]\nclass = 是"] ;
70 -> 78 ;
79 [label="gini = 0.0\nsamples = 1\nvalue = [0, 1]\nclass = 否"] ;
69 -> 79 ;
80 [label="交易日平均价 <= 0.619\ngini = 0.497\nsamples = 96\nvalue = [52, 44]\nclass = 是"] ;
68 -> 80 ;
81 [label="交易日平均价 <= -0.133\ngini = 0.499\nsamples = 93\nvalue = [49, 44]\nclass = 是"] ;
80 -> 81 ;
82 [label="次新股 <= 0.528\ngini = 0.499\nsamples = 77\nvalue = [37, 40]\nclass = 否"] ;
81 -> 82 ;
83 [label="近两年送转比例 <= -0.159\ngini = 0.5\nsamples = 74\nvalue = [37, 37]\nclass = 是"] ;
82 -> 83 ;
84 [label="gini = 0.498\nsamples = 68\nvalue = [36, 32]\nclass = 是"] ;
83 -> 84 ;
85 [label="gini = 0.278\nsamples = 6\nvalue = [1, 5]\nclass = 否"] ;
83 -> 85 ;
86 [label="gini = 0.0\nsamples = 3\nvalue = [0, 3]\nclass = 否"] ;
82 -> 86 ;
87 [label="近两年送转比例 <= -0.51\ngini = 0.375\nsamples = 16\nvalue = [12, 4]\nclass = 是"] ;
81 -> 87 ;
88 [label="每股现金流量净额(元/股) <= -0.269\ngini = 0.26\nsamples = 13\nvalue = [11, 2]\nclass = 是"] ;
87 -> 88 ;
89 [label="gini = 0.0\nsamples = 1\nvalue = [0, 1]\nclass = 否"] ;
88 -> 89 ;
90 [label="gini = 0.153\nsamples = 12\nvalue = [11, 1]\nclass = 是"] ;
88 -> 90 ;
91 [label="每股净资产(元/股) <= -0.048\ngini = 0.444\nsamples = 3\nvalue = [1, 2]\nclass = 否"] ;
87 -> 91 ;
92 [label="gini = 0.0\nsamples = 2\nvalue = [0, 2]\nclass = 否"] ;
91 -> 92 ;
93 [label="gini = 0.0\nsamples = 1\nvalue = [1, 0]\nclass = 是"] ;
91 -> 93 ;
94 [label="gini = 0.0\nsamples = 3\nvalue = [3, 0]\nclass = 是"] ;
80 -> 94 ;
95 [label="gini = 0.0\nsamples = 11\nvalue = [11, 0]\nclass = 是"] ;
65 -> 95 ;
96 [label="每股收益(期末摊薄，元/股) <= 1.101\ngini = 0.5\nsamples = 136\nvalue = [66, 70]\nclass = 否"] ;
64 -> 96 ;
97 [label="超涨或超跌 <= -0.189\ngini = 0.493\nsamples = 75\nvalue = [42, 33]\nclass = 是"] ;
96 -> 97 ;
98 [label="gini = 0.0\nsamples = 2\nvalue = [0, 2]\nclass = 否"] ;
97 -> 98 ;
99 [label="年份（年末） <= 2.825\ngini = 0.489\nsamples = 73\nvalue = [42, 31]\nclass = 是"] ;
97 -> 99 ;
100 [label="每股现金流量净额(元/股) <= 0.936\ngini = 0.278\nsamples = 6\nvalue = [1, 5]\nclass = 否"] ;
99 -> 100 ;
101 [label="gini = 0.0\nsamples = 4\nvalue = [0, 4]\nclass = 否"] ;
100 -> 101 ;
102 [label="gini = 0.5\nsamples = 2\nvalue = [1, 1]\nclass = 是"] ;
100 -> 102 ;
103 [label="每股净资产(元/股) <= 0.684\ngini = 0.475\nsamples = 67\nvalue = [41, 26]\nclass = 是"] ;
99 -> 103 ;
104 [label="每股现金流量净额(元/股) <= -0.49\ngini = 0.467\nsamples = 62\nvalue = [39, 23]\nclass = 是"] ;
103 -> 104 ;
105 [label="年份（年末） <= 4.08\ngini = 0.444\nsamples = 6\nvalue = [2, 4]\nclass = 否"] ;
104 -> 105 ;
106 [label="每股资本公积(元/股)+每股未分配利润(元/股) <= 0.508\ngini = 0.32\nsamples = 5\nvalue = [1, 4]\nclass = 否"] ;
105 -> 106 ;
107 [label="gini = 0.0\nsamples = 4\nvalue = [0, 4]\nclass = 否"] ;
106 -> 107 ;
108 [label="gini = 0.0\nsamples = 1\nvalue = [1, 0]\nclass = 是"] ;
106 -> 108 ;
109 [label="gini = 0.0\nsamples = 1\nvalue = [1, 0]\nclass = 是"] ;
105 -> 109 ;
110 [label="近两年送转比例 <= -0.1\ngini = 0.448\nsamples = 56\nvalue = [37, 19]\nclass = 是"] ;
104 -> 110 ;
111 [label="预增或预减 <= 0.637\ngini = 0.476\nsamples = 46\nvalue = [28, 18]\nclass = 是"] ;
110 -> 111 ;
112 [label="gini = 0.499\nsamples = 31\nvalue = [16, 15]\nclass = 是"] ;
111 -> 112 ;
113 [label="gini = 0.32\nsamples = 15\nvalue = [12, 3]\nclass = 是"] ;
111 -> 113 ;
114 [label="交易日平均价 <= 0.871\ngini = 0.18\nsamples = 10\nvalue = [9, 1]\nclass = 是"] ;
110 -> 114 ;
115 [label="gini = 0.0\nsamples = 9\nvalue = [9, 0]\nclass = 是"] ;
114 -> 115 ;
116 [label="gini = 0.0\nsamples = 1\nvalue = [0, 1]\nclass = 否"] ;
114 -> 116 ;
117 [label="次新股 <= 0.433\ngini = 0.48\nsamples = 5\nvalue = [2, 3]\nclass = 否"] ;
103 -> 117 ;
118 [label="gini = 0.0\nsamples = 3\nvalue = [0, 3]\nclass = 否"] ;
117 -> 118 ;
119 [label="gini = 0.0\nsamples = 2\nvalue = [2, 0]\nclass = 是"] ;
117 -> 119 ;
120 [label="年份（年末） <= 2.81\ngini = 0.477\nsamples = 61\nvalue = [24, 37]\nclass = 否"] ;
96 -> 120 ;
121 [label="gini = 0.0\nsamples = 5\nvalue = [5, 0]\nclass = 是"] ;
120 -> 121 ;
122 [label="预增或预减 <= 0.899\ngini = 0.448\nsamples = 56\nvalue = [19, 37]\nclass = 否"] ;
120 -> 122 ;
123 [label="实收资本(或股本) <= -0.11\ngini = 0.411\nsamples = 45\nvalue = [13, 32]\nclass = 否"] ;
122 -> 123 ;
124 [label="每股净资产(元/股) <= 0.941\ngini = 0.349\nsamples = 40\nvalue = [9, 31]\nclass = 否"] ;
123 -> 124 ;
125 [label="近两年送转比例 <= 0.981\ngini = 0.307\nsamples = 37\nvalue = [7, 30]\nclass = 否"] ;
124 -> 125 ;
126 [label="每股现金流量净额(元/股) <= -0.798\ngini = 0.245\nsamples = 35\nvalue = [5, 30]\nclass = 否"] ;
125 -> 126 ;
127 [label="gini = 0.0\nsamples = 2\nvalue = [2, 0]\nclass = 是"] ;
126 -> 127 ;
128 [label="gini = 0.165\nsamples = 33\nvalue = [3, 30]\nclass = 否"] ;
126 -> 128 ;
129 [label="gini = 0.0\nsamples = 2\nvalue = [2, 0]\nclass = 是"] ;
125 -> 129 ;
130 [label="每股收益(期末摊薄，元/股) <= 2.394\ngini = 0.444\nsamples = 3\nvalue = [2, 1]\nclass = 是"] ;
124 -> 130 ;
131 [label="gini = 0.0\nsamples = 2\nvalue = [2, 0]\nclass = 是"] ;
130 -> 131 ;
132 [label="gini = 0.0\nsamples = 1\nvalue = [0, 1]\nclass = 否"] ;
130 -> 132 ;
133 [label="近两年送转比例 <= 1.001\ngini = 0.32\nsamples = 5\nvalue = [4, 1]\nclass = 是"] ;
123 -> 133 ;
134 [label="gini = 0.0\nsamples = 4\nvalue = [4, 0]\nclass = 是"] ;
133 -> 134 ;
135 [label="gini = 0.0\nsamples = 1\nvalue = [0, 1]\nclass = 否"] ;
133 -> 135 ;
136 [label="实收资本(或股本) <= -0.119\ngini = 0.496\nsamples = 11\nvalue = [6, 5]\nclass = 是"] ;
122 -> 136 ;
137 [label="交易日平均价 <= -0.089\ngini = 0.48\nsamples = 10\nvalue = [6, 4]\nclass = 是"] ;
136 -> 137 ;
138 [label="年份（年末） <= 3.109\ngini = 0.49\nsamples = 7\nvalue = [3, 4]\nclass = 否"] ;
137 -> 138 ;
139 [label="实收资本(或股本) <= -0.127\ngini = 0.32\nsamples = 5\nvalue = [1, 4]\nclass = 否"] ;
138 -> 139 ;
140 [label="gini = 0.444\nsamples = 3\nvalue = [1, 2]\nclass = 否"] ;
139 -> 140 ;
141 [label="gini = 0.0\nsamples = 2\nvalue = [0, 2]\nclass = 否"] ;
139 -> 141 ;
142 [label="gini = 0.0\nsamples = 2\nvalue = [2, 0]\nclass = 是"] ;
138 -> 142 ;
143 [label="gini = 0.0\nsamples = 3\nvalue = [3, 0]\nclass = 是"] ;
137 -> 143 ;
144 [label="gini = 0.0\nsamples = 1\nvalue = [0, 1]\nclass = 否"] ;
136 -> 144 ;
145 [label="交易日平均价 <= -0.789\ngini = 0.491\nsamples = 132\nvalue = [57, 75]\nclass = 否"] ;
63 -> 145 ;
146 [label="实收资本(或股本) <= -0.123\ngini = 0.278\nsamples = 6\nvalue = [1, 5]\nclass = 否"] ;
145 -> 146 ;
147 [label="gini = 0.0\nsamples = 5\nvalue = [0, 5]\nclass = 否"] ;
146 -> 147 ;
148 [label="gini = 0.0\nsamples = 1\nvalue = [1, 0]\nclass = 是"] ;
146 -> 148 ;
149 [label="每股现金流量净额(元/股) <= 2.254\ngini = 0.494\nsamples = 126\nvalue = [56, 70]\nclass = 否"] ;
145 -> 149 ;
150 [label="交易日平均价 <= -0.304\ngini = 0.49\nsamples = 123\nvalue = [53, 70]\nclass = 否"] ;
149 -> 150 ;
151 [label="预增或预减 <= -0.067\ngini = 0.448\nsamples = 71\nvalue = [24, 47]\nclass = 否"] ;
150 -> 151 ;
152 [label="gini = 0.0\nsamples = 5\nvalue = [0, 5]\nclass = 否"] ;
151 -> 152 ;
153 [label="每股资本公积(元/股)+每股未分配利润(元/股) <= 0.12\ngini = 0.463\nsamples = 66\nvalue = [24, 42]\nclass = 否"] ;
151 -> 153 ;
154 [label="超涨或超跌 <= 0.814\ngini = 0.499\nsamples = 48\nvalue = [23, 25]\nclass = 否"] ;
153 -> 154 ;
155 [label="每股净资产(元/股) <= -0.464\ngini = 0.475\nsamples = 31\nvalue = [12, 19]\nclass = 否"] ;
154 -> 155 ;
156 [label="gini = 0.0\nsamples = 2\nvalue = [2, 0]\nclass = 是"] ;
155 -> 156 ;
157 [label="每股现金流量净额(元/股) <= -0.002\ngini = 0.452\nsamples = 29\nvalue = [10, 19]\nclass = 否"] ;
155 -> 157 ;
158 [label="gini = 0.49\nsamples = 14\nvalue = [6, 8]\nclass = 否"] ;
157 -> 158 ;
159 [label="gini = 0.391\nsamples = 15\nvalue = [4, 11]\nclass = 否"] ;
157 -> 159 ;
160 [label="年份（年末） <= 2.562\ngini = 0.457\nsamples = 17\nvalue = [11, 6]\nclass = 是"] ;
154 -> 160 ;
161 [label="每股资本公积(元/股)+每股未分配利润(元/股) <= -0.169\ngini = 0.5\nsamples = 10\nvalue = [5, 5]\nclass = 是"] ;
160 -> 161 ;
162 [label="gini = 0.408\nsamples = 7\nvalue = [5, 2]\nclass = 是"] ;
161 -> 162 ;
163 [label="gini = 0.0\nsamples = 3\nvalue = [0, 3]\nclass = 否"] ;
161 -> 163 ;
164 [label="每股净资产(元/股) <= -0.008\ngini = 0.245\nsamples = 7\nvalue = [6, 1]\nclass = 是"] ;
160 -> 164 ;
165 [label="gini = 0.444\nsamples = 3\nvalue = [2, 1]\nclass = 是"] ;
164 -> 165 ;
166 [label="gini = 0.0\nsamples = 4\nvalue = [4, 0]\nclass = 是"] ;
164 -> 166 ;
167 [label="每股资本公积(元/股)+每股未分配利润(元/股) <= 0.323\ngini = 0.105\nsamples = 18\nvalue = [1, 17]\nclass = 否"] ;
153 -> 167 ;
168 [label="每股净资产(元/股) <= 0.227\ngini = 0.219\nsamples = 8\nvalue = [1, 7]\nclass = 否"] ;
167 -> 168 ;
169 [label="gini = 0.0\nsamples = 5\nvalue = [0, 5]\nclass = 否"] ;
168 -> 169 ;
170 [label="营业总收入同必增长(%) <= -0.008\ngini = 0.444\nsamples = 3\nvalue = [1, 2]\nclass = 否"] ;
168 -> 170 ;
171 [label="gini = 0.0\nsamples = 1\nvalue = [1, 0]\nclass = 是"] ;
170 -> 171 ;
172 [label="gini = 0.0\nsamples = 2\nvalue = [0, 2]\nclass = 否"] ;
170 -> 172 ;
173 [label="gini = 0.0\nsamples = 10\nvalue = [0, 10]\nclass = 否"] ;
167 -> 173 ;
174 [label="预增或预减 <= 0.688\ngini = 0.493\nsamples = 52\nvalue = [29, 23]\nclass = 是"] ;
150 -> 174 ;
175 [label="每股现金流量净额(元/股) <= 0.949\ngini = 0.485\nsamples = 46\nvalue = [27, 19]\nclass = 是"] ;
174 -> 175 ;
176 [label="近两年送转比例 <= -0.094\ngini = 0.459\nsamples = 42\nvalue = [27, 15]\nclass = 是"] ;
175 -> 176 ;
177 [label="近两年送转比例 <= -0.357\ngini = 0.412\nsamples = 31\nvalue = [22, 9]\nclass = 是"] ;
176 -> 177 ;
178 [label="营业总收入同必增长(%) <= -0.006\ngini = 0.337\nsamples = 28\nvalue = [22, 6]\nclass = 是"] ;
177 -> 178 ;
179 [label="gini = 0.302\nsamples = 27\nvalue = [22, 5]\nclass = 是"] ;
178 -> 179 ;
180 [label="gini = 0.0\nsamples = 1\nvalue = [0, 1]\nclass = 否"] ;
178 -> 180 ;
181 [label="gini = 0.0\nsamples = 3\nvalue = [0, 3]\nclass = 否"] ;
177 -> 181 ;
182 [label="每股收益(期末摊薄，元/股) <= 1.796\ngini = 0.496\nsamples = 11\nvalue = [5, 6]\nclass = 否"] ;
176 -> 182 ;
183 [label="每股现金流量净额(元/股) <= -0.415\ngini = 0.469\nsamples = 8\nvalue = [5, 3]\nclass = 是"] ;
182 -> 183 ;
184 [label="gini = 0.0\nsamples = 1\nvalue = [0, 1]\nclass = 否"] ;
183 -> 184 ;
185 [label="gini = 0.408\nsamples = 7\nvalue = [5, 2]\nclass = 是"] ;
183 -> 185 ;
186 [label="gini = 0.0\nsamples = 3\nvalue = [0, 3]\nclass = 否"] ;
182 -> 186 ;
187 [label="gini = 0.0\nsamples = 4\nvalue = [0, 4]\nclass = 否"] ;
175 -> 187 ;
188 [label="近两年送转比例 <= -0.199\ngini = 0.444\nsamples = 6\nvalue = [2, 4]\nclass = 否"] ;
174 -> 188 ;
189 [label="gini = 0.0\nsamples = 3\nvalue = [0, 3]\nclass = 否"] ;
188 -> 189 ;
190 [label="交易日平均价 <= 0.456\ngini = 0.444\nsamples = 3\nvalue = [2, 1]\nclass = 是"] ;
188 -> 190 ;
191 [label="gini = 0.0\nsamples = 2\nvalue = [2, 0]\nclass = 是"] ;
190 -> 191 ;
192 [label="gini = 0.0\nsamples = 1\nvalue = [0, 1]\nclass = 否"] ;
190 -> 192 ;
193 [label="gini = 0.0\nsamples = 3\nvalue = [3, 0]\nclass = 是"] ;
149 -> 193 ;
194 [label="交易日平均价 <= 1.011\ngini = 0.153\nsamples = 12\nvalue = [11, 1]\nclass = 是"] ;
62 -> 194 ;
195 [label="gini = 0.0\nsamples = 11\nvalue = [11, 0]\nclass = 是"] ;
194 -> 195 ;
196 [label="gini = 0.0\nsamples = 1\nvalue = [0, 1]\nclass = 否"] ;
194 -> 196 ;
197 [label="预增或预减 <= 0.167\ngini = 0.332\nsamples = 19\nvalue = [4, 15]\nclass = 否"] ;
61 -> 197 ;
198 [label="预增或预减 <= -0.357\ngini = 0.124\nsamples = 15\nvalue = [1, 14]\nclass = 否"] ;
197 -> 198 ;
199 [label="gini = 0.5\nsamples = 2\nvalue = [1, 1]\nclass = 是"] ;
198 -> 199 ;
200 [label="gini = 0.0\nsamples = 13\nvalue = [0, 13]\nclass = 否"] ;
198 -> 200 ;
201 [label="实收资本(或股本) <= -0.108\ngini = 0.375\nsamples = 4\nvalue = [3, 1]\nclass = 是"] ;
197 -> 201 ;
202 [label="gini = 0.0\nsamples = 3\nvalue = [3, 0]\nclass = 是"] ;
201 -> 202 ;
203 [label="gini = 0.0\nsamples = 1\nvalue = [0, 1]\nclass = 否"] ;
201 -> 203 ;
204 [label="每股资本公积(元/股)+每股未分配利润(元/股) <= 0.839\ngini = 0.416\nsamples = 1012\nvalue = [714, 298]\nclass = 是"] ;
2 -> 204 ;
205 [label="每股收益(期末摊薄，元/股) <= 0.551\ngini = 0.358\nsamples = 650\nvalue = [498, 152]\nclass = 是"] ;
204 -> 205 ;
206 [label="每股资本公积(元/股)+每股未分配利润(元/股) <= 0.513\ngini = 0.33\nsamples = 565\nvalue = [447, 118]\nclass = 是"] ;
205 -> 206 ;
207 [label="每股净资产(元/股) <= -0.236\ngini = 0.305\nsamples = 442\nvalue = [359, 83]\nclass = 是"] ;
206 -> 207 ;
208 [label="实收资本(或股本) <= -0.106\ngini = 0.147\nsamples = 113\nvalue = [104, 9]\nclass = 是"] ;
207 -> 208 ;
209 [label="每股资本公积(元/股)+每股未分配利润(元/股) <= -0.463\ngini = 0.229\nsamples = 53\nvalue = [46, 7]\nclass = 是"] ;
208 -> 209 ;
210 [label="gini = 0.0\nsamples = 15\nvalue = [15, 0]\nclass = 是"] ;
209 -> 210 ;
211 [label="营业总收入同必增长(%) <= -0.007\ngini = 0.301\nsamples = 38\nvalue = [31, 7]\nclass = 是"] ;
209 -> 211 ;
212 [label="交易日平均价 <= 0.962\ngini = 0.272\nsamples = 37\nvalue = [31, 6]\nclass = 是"] ;
211 -> 212 ;
213 [label="实收资本(或股本) <= -0.123\ngini = 0.375\nsamples = 24\nvalue = [18, 6]\nclass = 是"] ;
212 -> 213 ;
214 [label="每股净资产(元/股) <= -0.278\ngini = 0.5\nsamples = 4\nvalue = [2, 2]\nclass = 是"] ;
213 -> 214 ;
215 [label="gini = 0.0\nsamples = 2\nvalue = [2, 0]\nclass = 是"] ;
214 -> 215 ;
216 [label="gini = 0.0\nsamples = 2\nvalue = [0, 2]\nclass = 否"] ;
214 -> 216 ;
217 [label="每股净资产(元/股) <= -0.352\ngini = 0.32\nsamples = 20\nvalue = [16, 4]\nclass = 是"] ;
213 -> 217 ;
218 [label="交易日平均价 <= -0.228\ngini = 0.444\nsamples = 9\nvalue = [6, 3]\nclass = 是"] ;
217 -> 218 ;
219 [label="gini = 0.0\nsamples = 2\nvalue = [2, 0]\nclass = 是"] ;
218 -> 219 ;
220 [label="每股收益(期末摊薄，元/股) <= -0.345\ngini = 0.49\nsamples = 7\nvalue = [4, 3]\nclass = 是"] ;
218 -> 220 ;
221 [label="gini = 0.0\nsamples = 1\nvalue = [0, 1]\nclass = 否"] ;
220 -> 221 ;
222 [label="gini = 0.444\nsamples = 6\nvalue = [4, 2]\nclass = 是"] ;
220 -> 222 ;
223 [label="每股现金流量净额(元/股) <= -0.298\ngini = 0.165\nsamples = 11\nvalue = [10, 1]\nclass = 是"] ;
217 -> 223 ;
224 [label="gini = 0.5\nsamples = 2\nvalue = [1, 1]\nclass = 是"] ;
223 -> 224 ;
225 [label="gini = 0.0\nsamples = 9\nvalue = [9, 0]\nclass = 是"] ;
223 -> 225 ;
226 [label="gini = 0.0\nsamples = 13\nvalue = [13, 0]\nclass = 是"] ;
212 -> 226 ;
227 [label="gini = 0.0\nsamples = 1\nvalue = [0, 1]\nclass = 否"] ;
211 -> 227 ;
228 [label="年份（年末） <= 4.128\ngini = 0.064\nsamples = 60\nvalue = [58, 2]\nclass = 是"] ;
208 -> 228 ;
229 [label="gini = 0.0\nsamples = 33\nvalue = [33, 0]\nclass = 是"] ;
228 -> 229 ;
230 [label="每股现金流量净额(元/股) <= 0.138\ngini = 0.137\nsamples = 27\nvalue = [25, 2]\nclass = 是"] ;
228 -> 230 ;
231 [label="gini = 0.0\nsamples = 14\nvalue = [14, 0]\nclass = 是"] ;
230 -> 231 ;
232 [label="交易日平均价 <= 0.505\ngini = 0.26\nsamples = 13\nvalue = [11, 2]\nclass = 是"] ;
230 -> 232 ;
233 [label="每股净资产(元/股) <= -0.258\ngini = 0.375\nsamples = 8\nvalue = [6, 2]\nclass = 是"] ;
232 -> 233 ;
234 [label="交易日平均价 <= -0.133\ngini = 0.245\nsamples = 7\nvalue = [6, 1]\nclass = 是"] ;
233 -> 234 ;
235 [label="gini = 0.0\nsamples = 4\nvalue = [4, 0]\nclass = 是"] ;
234 -> 235 ;
236 [label="近两年送转比例 <= -0.498\ngini = 0.444\nsamples = 3\nvalue = [2, 1]\nclass = 是"] ;
234 -> 236 ;
237 [label="gini = 0.0\nsamples = 2\nvalue = [2, 0]\nclass = 是"] ;
236 -> 237 ;
238 [label="gini = 0.0\nsamples = 1\nvalue = [0, 1]\nclass = 否"] ;
236 -> 238 ;
239 [label="gini = 0.0\nsamples = 1\nvalue = [0, 1]\nclass = 否"] ;
233 -> 239 ;
240 [label="gini = 0.0\nsamples = 5\nvalue = [5, 0]\nclass = 是"] ;
232 -> 240 ;
241 [label="年份（年末） <= 2.575\ngini = 0.349\nsamples = 329\nvalue = [255, 74]\nclass = 是"] ;
207 -> 241 ;
242 [label="每股净资产(元/股) <= 0.121\ngini = 0.403\nsamples = 125\nvalue = [90, 35]\nclass = 是"] ;
241 -> 242 ;
243 [label="营业总收入同必增长(%) <= -0.009\ngini = 0.311\nsamples = 57\nvalue = [46, 11]\nclass = 是"] ;
242 -> 243 ;
244 [label="每股净资产(元/股) <= 0.082\ngini = 0.423\nsamples = 23\nvalue = [16, 7]\nclass = 是"] ;
243 -> 244 ;
245 [label="每股资本公积(元/股)+每股未分配利润(元/股) <= -0.01\ngini = 0.332\nsamples = 19\nvalue = [15, 4]\nclass = 是"] ;
244 -> 245 ;
246 [label="超涨或超跌 <= 0.575\ngini = 0.153\nsamples = 12\nvalue = [11, 1]\nclass = 是"] ;
245 -> 246 ;
247 [label="gini = 0.0\nsamples = 9\nvalue = [9, 0]\nclass = 是"] ;
246 -> 247 ;
248 [label="交易日平均价 <= -0.835\ngini = 0.444\nsamples = 3\nvalue = [2, 1]\nclass = 是"] ;
246 -> 248 ;
249 [label="gini = 0.0\nsamples = 1\nvalue = [0, 1]\nclass = 否"] ;
248 -> 249 ;
250 [label="gini = 0.0\nsamples = 2\nvalue = [2, 0]\nclass = 是"] ;
248 -> 250 ;
251 [label="预增或预减 <= -0.264\ngini = 0.49\nsamples = 7\nvalue = [4, 3]\nclass = 是"] ;
245 -> 251 ;
252 [label="gini = 0.0\nsamples = 2\nvalue = [2, 0]\nclass = 是"] ;
251 -> 252 ;
253 [label="实收资本(或股本) <= -0.087\ngini = 0.48\nsamples = 5\nvalue = [2, 3]\nclass = 否"] ;
251 -> 253 ;
254 [label="每股收益(期末摊薄，元/股) <= -0.052\ngini = 0.375\nsamples = 4\nvalue = [1, 3]\nclass = 否"] ;
253 -> 254 ;
255 [label="gini = 0.0\nsamples = 3\nvalue = [0, 3]\nclass = 否"] ;
254 -> 255 ;
256 [label="gini = 0.0\nsamples = 1\nvalue = [1, 0]\nclass = 是"] ;
254 -> 256 ;
257 [label="gini = 0.0\nsamples = 1\nvalue = [1, 0]\nclass = 是"] ;
253 -> 257 ;
258 [label="每股净资产(元/股) <= 0.112\ngini = 0.375\nsamples = 4\nvalue = [1, 3]\nclass = 否"] ;
244 -> 258 ;
259 [label="gini = 0.5\nsamples = 2\nvalue = [1, 1]\nclass = 是"] ;
258 -> 259 ;
260 [label="gini = 0.0\nsamples = 2\nvalue = [0, 2]\nclass = 否"] ;
258 -> 260 ;
261 [label="超涨或超跌 <= 0.287\ngini = 0.208\nsamples = 34\nvalue = [30, 4]\nclass = 是"] ;
243 -> 261 ;
262 [label="交易日平均价 <= -0.586\ngini = 0.095\nsamples = 20\nvalue = [19, 1]\nclass = 是"] ;
261 -> 262 ;
263 [label="营业总收入同必增长(%) <= -0.008\ngini = 0.165\nsamples = 11\nvalue = [10, 1]\nclass = 是"] ;
262 -> 263 ;
264 [label="交易日平均价 <= -0.673\ngini = 0.32\nsamples = 5\nvalue = [4, 1]\nclass = 是"] ;
263 -> 264 ;
265 [label="gini = 0.0\nsamples = 2\nvalue = [2, 0]\nclass = 是"] ;
264 -> 265 ;
266 [label="每股资本公积(元/股)+每股未分配利润(元/股) <= 0.004\ngini = 0.444\nsamples = 3\nvalue = [2, 1]\nclass = 是"] ;
264 -> 266 ;
267 [label="gini = 0.0\nsamples = 2\nvalue = [2, 0]\nclass = 是"] ;
266 -> 267 ;
268 [label="gini = 0.0\nsamples = 1\nvalue = [0, 1]\nclass = 否"] ;
266 -> 268 ;
269 [label="gini = 0.0\nsamples = 6\nvalue = [6, 0]\nclass = 是"] ;
263 -> 269 ;
270 [label="gini = 0.0\nsamples = 9\nvalue = [9, 0]\nclass = 是"] ;
262 -> 270 ;
271 [label="每股收益(期末摊薄，元/股) <= -0.016\ngini = 0.337\nsamples = 14\nvalue = [11, 3]\nclass = 是"] ;
261 -> 271 ;
272 [label="每股现金流量净额(元/股) <= 0.881\ngini = 0.5\nsamples = 6\nvalue = [3, 3]\nclass = 是"] ;
271 -> 272 ;
273 [label="gini = 0.0\nsamples = 2\nvalue = [2, 0]\nclass = 是"] ;
272 -> 273 ;
274 [label="每股资本公积(元/股)+每股未分配利润(元/股) <= 0.023\ngini = 0.375\nsamples = 4\nvalue = [1, 3]\nclass = 否"] ;
272 -> 274 ;
275 [label="gini = 0.0\nsamples = 2\nvalue = [0, 2]\nclass = 否"] ;
274 -> 275 ;
276 [label="gini = 0.5\nsamples = 2\nvalue = [1, 1]\nclass = 是"] ;
274 -> 276 ;
277 [label="gini = 0.0\nsamples = 8\nvalue = [8, 0]\nclass = 是"] ;
271 -> 277 ;
278 [label="超涨或超跌 <= -0.516\ngini = 0.457\nsamples = 68\nvalue = [44, 24]\nclass = 是"] ;
242 -> 278 ;
279 [label="gini = 0.0\nsamples = 2\nvalue = [2, 0]\nclass = 是"] ;
278 -> 279 ;
280 [label="近两年送转比例 <= 2.767\ngini = 0.463\nsamples = 66\nvalue = [42, 24]\nclass = 是"] ;
278 -> 280 ;
281 [label="每股现金流量净额(元/股) <= -0.952\ngini = 0.472\nsamples = 63\nvalue = [39, 24]\nclass = 是"] ;
280 -> 281 ;
282 [label="gini = 0.0\nsamples = 1\nvalue = [1, 0]\nclass = 是"] ;
281 -> 282 ;
283 [label="每股资本公积(元/股)+每股未分配利润(元/股) <= 0.501\ngini = 0.475\nsamples = 62\nvalue = [38, 24]\nclass = 是"] ;
281 -> 283 ;
284 [label="交易日平均价 <= -0.59\ngini = 0.464\nsamples = 60\nvalue = [38, 22]\nclass = 是"] ;
283 -> 284 ;
285 [label="每股净资产(元/股) <= 0.148\ngini = 0.439\nsamples = 43\nvalue = [29, 14]\nclass = 是"] ;
284 -> 285 ;
286 [label="gini = 0.5\nsamples = 4\nvalue = [2, 2]\nclass = 是"] ;
285 -> 286 ;
287 [label="gini = 0.426\nsamples = 39\nvalue = [27, 12]\nclass = 是"] ;
285 -> 287 ;
288 [label="每股收益(期末摊薄，元/股) <= 0.323\ngini = 0.498\nsamples = 17\nvalue = [9, 8]\nclass = 是"] ;
284 -> 288 ;
289 [label="gini = 0.486\nsamples = 12\nvalue = [5, 7]\nclass = 否"] ;
288 -> 289 ;
290 [label="gini = 0.32\nsamples = 5\nvalue = [4, 1]\nclass = 是"] ;
288 -> 290 ;
291 [label="gini = 0.0\nsamples = 2\nvalue = [0, 2]\nclass = 否"] ;
283 -> 291 ;
292 [label="gini = 0.0\nsamples = 3\nvalue = [3, 0]\nclass = 是"] ;
280 -> 292 ;
293 [label="近两年送转比例 <= 1.921\ngini = 0.309\nsamples = 204\nvalue = [165, 39]\nclass = 是"] ;
241 -> 293 ;
294 [label="交易日平均价 <= 1.614\ngini = 0.298\nsamples = 198\nvalue = [162, 36]\nclass = 是"] ;
293 -> 294 ;
295 [label="每股资本公积(元/股)+每股未分配利润(元/股) <= 0.366\ngini = 0.318\nsamples = 146\nvalue = [117, 29]\nclass = 是"] ;
294 -> 295 ;
296 [label="超涨或超跌 <= 0.233\ngini = 0.302\nsamples = 124\nvalue = [101, 23]\nclass = 是"] ;
295 -> 296 ;
297 [label="近两年送转比例 <= -0.332\ngini = 0.268\nsamples = 88\nvalue = [74, 14]\nclass = 是"] ;
296 -> 297 ;
298 [label="交易日平均价 <= 0.318\ngini = 0.351\nsamples = 44\nvalue = [34, 10]\nclass = 是"] ;
297 -> 298 ;
299 [label="每股资本公积(元/股)+每股未分配利润(元/股) <= -0.036\ngini = 0.465\nsamples = 19\nvalue = [12, 7]\nclass = 是"] ;
298 -> 299 ;
300 [label="gini = 0.18\nsamples = 10\nvalue = [9, 1]\nclass = 是"] ;
299 -> 300 ;
301 [label="gini = 0.444\nsamples = 9\nvalue = [3, 6]\nclass = 否"] ;
299 -> 301 ;
302 [label="每股收益(期末摊薄，元/股) <= -0.025\ngini = 0.211\nsamples = 25\nvalue = [22, 3]\nclass = 是"] ;
298 -> 302 ;
303 [label="gini = 0.32\nsamples = 10\nvalue = [8, 2]\nclass = 是"] ;
302 -> 303 ;
304 [label="gini = 0.124\nsamples = 15\nvalue = [14, 1]\nclass = 是"] ;
302 -> 304 ;
305 [label="每股净资产(元/股) <= 0.073\ngini = 0.165\nsamples = 44\nvalue = [40, 4]\nclass = 是"] ;
297 -> 305 ;
306 [label="年份（年末） <= 4.453\ngini = 0.269\nsamples = 25\nvalue = [21, 4]\nclass = 是"] ;
305 -> 306 ;
307 [label="gini = 0.0\nsamples = 6\nvalue = [6, 0]\nclass = 是"] ;
306 -> 307 ;
308 [label="gini = 0.332\nsamples = 19\nvalue = [15, 4]\nclass = 是"] ;
306 -> 308 ;
309 [label="gini = 0.0\nsamples = 19\nvalue = [19, 0]\nclass = 是"] ;
305 -> 309 ;
310 [label="每股现金流量净额(元/股) <= 0.726\ngini = 0.375\nsamples = 36\nvalue = [27, 9]\nclass = 是"] ;
296 -> 310 ;
311 [label="每股净资产(元/股) <= 0.16\ngini = 0.444\nsamples = 27\nvalue = [18, 9]\nclass = 是"] ;
310 -> 311 ;
312 [label="年份（年末） <= 5.275\ngini = 0.488\nsamples = 19\nvalue = [11, 8]\nclass = 是"] ;
311 -> 312 ;
313 [label="gini = 0.457\nsamples = 17\nvalue = [11, 6]\nclass = 是"] ;
312 -> 313 ;
314 [label="gini = 0.0\nsamples = 2\nvalue = [0, 2]\nclass = 否"] ;
312 -> 314 ;
315 [label="每股收益(期末摊薄，元/股) <= 0.361\ngini = 0.219\nsamples = 8\nvalue = [7, 1]\nclass = 是"] ;
311 -> 315 ;
316 [label="gini = 0.0\nsamples = 6\nvalue = [6, 0]\nclass = 是"] ;
315 -> 316 ;
317 [label="gini = 0.5\nsamples = 2\nvalue = [1, 1]\nclass = 是"] ;
315 -> 317 ;
318 [label="gini = 0.0\nsamples = 9\nvalue = [9, 0]\nclass = 是"] ;
310 -> 318 ;
319 [label="营业总收入同必增长(%) <= -0.009\ngini = 0.397\nsamples = 22\nvalue = [16, 6]\nclass = 是"] ;
295 -> 319 ;
320 [label="近两年送转比例 <= 0.336\ngini = 0.18\nsamples = 10\nvalue = [9, 1]\nclass = 是"] ;
319 -> 320 ;
321 [label="近两年送转比例 <= -0.614\ngini = 0.375\nsamples = 4\nvalue = [3, 1]\nclass = 是"] ;
320 -> 321 ;
322 [label="gini = 0.0\nsamples = 1\nvalue = [0, 1]\nclass = 否"] ;
321 -> 322 ;
323 [label="gini = 0.0\nsamples = 3\nvalue = [3, 0]\nclass = 是"] ;
321 -> 323 ;
324 [label="gini = 0.0\nsamples = 6\nvalue = [6, 0]\nclass = 是"] ;
320 -> 324 ;
325 [label="营业总收入同必增长(%) <= -0.008\ngini = 0.486\nsamples = 12\nvalue = [7, 5]\nclass = 是"] ;
319 -> 325 ;
326 [label="每股收益(期末摊薄，元/股) <= 0.092\ngini = 0.42\nsamples = 10\nvalue = [7, 3]\nclass = 是"] ;
325 -> 326 ;
327 [label="年份（年末） <= 5.393\ngini = 0.444\nsamples = 3\nvalue = [1, 2]\nclass = 否"] ;
326 -> 327 ;
328 [label="gini = 0.0\nsamples = 2\nvalue = [0, 2]\nclass = 否"] ;
327 -> 328 ;
329 [label="gini = 0.0\nsamples = 1\nvalue = [1, 0]\nclass = 是"] ;
327 -> 329 ;
330 [label="近两年送转比例 <= -0.129\ngini = 0.245\nsamples = 7\nvalue = [6, 1]\nclass = 是"] ;
326 -> 330 ;
331 [label="gini = 0.0\nsamples = 5\nvalue = [5, 0]\nclass = 是"] ;
330 -> 331 ;
332 [label="gini = 0.5\nsamples = 2\nvalue = [1, 1]\nclass = 是"] ;
330 -> 332 ;
333 [label="gini = 0.0\nsamples = 2\nvalue = [0, 2]\nclass = 否"] ;
325 -> 333 ;
334 [label="每股现金流量净额(元/股) <= 0.754\ngini = 0.233\nsamples = 52\nvalue = [45, 7]\nclass = 是"] ;
294 -> 334 ;
335 [label="实收资本(或股本) <= -0.119\ngini = 0.142\nsamples = 39\nvalue = [36, 3]\nclass = 是"] ;
334 -> 335 ;
336 [label="营业总收入同必增长(%) <= -0.008\ngini = 0.064\nsamples = 30\nvalue = [29, 1]\nclass = 是"] ;
335 -> 336 ;
337 [label="gini = 0.0\nsamples = 28\nvalue = [28, 0]\nclass = 是"] ;
336 -> 337 ;
338 [label="gini = 0.5\nsamples = 2\nvalue = [1, 1]\nclass = 是"] ;
336 -> 338 ;
339 [label="交易日平均价 <= 2.521\ngini = 0.346\nsamples = 9\nvalue = [7, 2]\nclass = 是"] ;
335 -> 339 ;
340 [label="近两年送转比例 <= -0.228\ngini = 0.444\nsamples = 6\nvalue = [4, 2]\nclass = 是"] ;
339 -> 340 ;
341 [label="营业总收入同必增长(%) <= -0.01\ngini = 0.32\nsamples = 5\nvalue = [4, 1]\nclass = 是"] ;
340 -> 341 ;
342 [label="gini = 0.0\nsamples = 1\nvalue = [0, 1]\nclass = 否"] ;
341 -> 342 ;
343 [label="gini = 0.0\nsamples = 4\nvalue = [4, 0]\nclass = 是"] ;
341 -> 343 ;
344 [label="gini = 0.0\nsamples = 1\nvalue = [0, 1]\nclass = 否"] ;
340 -> 344 ;
345 [label="gini = 0.0\nsamples = 3\nvalue = [3, 0]\nclass = 是"] ;
339 -> 345 ;
346 [label="超涨或超跌 <= 0.835\ngini = 0.426\nsamples = 13\nvalue = [9, 4]\nclass = 是"] ;
334 -> 346 ;
347 [label="每股现金流量净额(元/股) <= 1.009\ngini = 0.198\nsamples = 9\nvalue = [8, 1]\nclass = 是"] ;
346 -> 347 ;
348 [label="gini = 0.0\nsamples = 6\nvalue = [6, 0]\nclass = 是"] ;
347 -> 348 ;
349 [label="交易日平均价 <= 2.018\ngini = 0.444\nsamples = 3\nvalue = [2, 1]\nclass = 是"] ;
347 -> 349 ;
350 [label="gini = 0.0\nsamples = 1\nvalue = [0, 1]\nclass = 否"] ;
349 -> 350 ;
351 [label="gini = 0.0\nsamples = 2\nvalue = [2, 0]\nclass = 是"] ;
349 -> 351 ;
352 [label="每股净资产(元/股) <= 0.153\ngini = 0.375\nsamples = 4\nvalue = [1, 3]\nclass = 否"] ;
346 -> 352 ;
353 [label="gini = 0.0\nsamples = 1\nvalue = [1, 0]\nclass = 是"] ;
352 -> 353 ;
354 [label="gini = 0.0\nsamples = 3\nvalue = [0, 3]\nclass = 否"] ;
352 -> 354 ;
355 [label="实收资本(或股本) <= -0.127\ngini = 0.5\nsamples = 6\nvalue = [3, 3]\nclass = 是"] ;
293 -> 355 ;
356 [label="gini = 0.0\nsamples = 1\nvalue = [1, 0]\nclass = 是"] ;
355 -> 356 ;
357 [label="每股净资产(元/股) <= -0.054\ngini = 0.48\nsamples = 5\nvalue = [2, 3]\nclass = 否"] ;
355 -> 357 ;
358 [label="gini = 0.0\nsamples = 2\nvalue = [0, 2]\nclass = 否"] ;
357 -> 358 ;
359 [label="超涨或超跌 <= 0.976\ngini = 0.444\nsamples = 3\nvalue = [2, 1]\nclass = 是"] ;
357 -> 359 ;
360 [label="gini = 0.0\nsamples = 1\nvalue = [1, 0]\nclass = 是"] ;
359 -> 360 ;
361 [label="gini = 0.5\nsamples = 2\nvalue = [1, 1]\nclass = 是"] ;
359 -> 361 ;
362 [label="近两年送转比例 <= 1.477\ngini = 0.407\nsamples = 123\nvalue = [88, 35]\nclass = 是"] ;
206 -> 362 ;
363 [label="每股资本公积(元/股)+每股未分配利润(元/股) <= 0.83\ngini = 0.442\nsamples = 97\nvalue = [65, 32]\nclass = 是"] ;
362 -> 363 ;
364 [label="近两年送转比例 <= 0.276\ngini = 0.435\nsamples = 94\nvalue = [64, 30]\nclass = 是"] ;
363 -> 364 ;
365 [label="实收资本(或股本) <= -0.097\ngini = 0.484\nsamples = 61\nvalue = [36, 25]\nclass = 是"] ;
364 -> 365 ;
366 [label="实收资本(或股本) <= -0.114\ngini = 0.476\nsamples = 59\nvalue = [36, 23]\nclass = 是"] ;
365 -> 366 ;
367 [label="每股现金流量净额(元/股) <= 0.811\ngini = 0.488\nsamples = 52\nvalue = [30, 22]\nclass = 是"] ;
366 -> 367 ;
368 [label="每股收益(期末摊薄，元/股) <= 0.007\ngini = 0.499\nsamples = 23\nvalue = [11, 12]\nclass = 否"] ;
367 -> 368 ;
369 [label="gini = 0.0\nsamples = 2\nvalue = [2, 0]\nclass = 是"] ;
368 -> 369 ;
370 [label="每股收益(期末摊薄，元/股) <= 0.23\ngini = 0.49\nsamples = 21\nvalue = [9, 12]\nclass = 否"] ;
368 -> 370 ;
371 [label="营业总收入同必增长(%) <= -0.009\ngini = 0.375\nsamples = 8\nvalue = [2, 6]\nclass = 否"] ;
370 -> 371 ;
372 [label="gini = 0.0\nsamples = 1\nvalue = [1, 0]\nclass = 是"] ;
371 -> 372 ;
373 [label="gini = 0.245\nsamples = 7\nvalue = [1, 6]\nclass = 否"] ;
371 -> 373 ;
374 [label="每股现金流量净额(元/股) <= -0.547\ngini = 0.497\nsamples = 13\nvalue = [7, 6]\nclass = 是"] ;
370 -> 374 ;
375 [label="gini = 0.0\nsamples = 1\nvalue = [0, 1]\nclass = 否"] ;
374 -> 375 ;
376 [label="gini = 0.486\nsamples = 12\nvalue = [7, 5]\nclass = 是"] ;
374 -> 376 ;
377 [label="每股收益(期末摊薄，元/股) <= 0.076\ngini = 0.452\nsamples = 29\nvalue = [19, 10]\nclass = 是"] ;
367 -> 377 ;
378 [label="每股资本公积(元/股)+每股未分配利润(元/股) <= 0.58\ngini = 0.375\nsamples = 4\nvalue = [1, 3]\nclass = 否"] ;
377 -> 378 ;
379 [label="gini = 0.0\nsamples = 1\nvalue = [1, 0]\nclass = 是"] ;
378 -> 379 ;
380 [label="gini = 0.0\nsamples = 3\nvalue = [0, 3]\nclass = 否"] ;
378 -> 380 ;
381 [label="年份（年末） <= 4.384\ngini = 0.403\nsamples = 25\nvalue = [18, 7]\nclass = 是"] ;
377 -> 381 ;
382 [label="每股收益(期末摊薄，元/股) <= 0.466\ngini = 0.245\nsamples = 14\nvalue = [12, 2]\nclass = 是"] ;
381 -> 382 ;
383 [label="gini = 0.142\nsamples = 13\nvalue = [12, 1]\nclass = 是"] ;
382 -> 383 ;
384 [label="gini = 0.0\nsamples = 1\nvalue = [0, 1]\nclass = 否"] ;
382 -> 384 ;
385 [label="每股收益(期末摊薄，元/股) <= 0.436\ngini = 0.496\nsamples = 11\nvalue = [6, 5]\nclass = 是"] ;
381 -> 385 ;
386 [label="gini = 0.444\nsamples = 9\nvalue = [6, 3]\nclass = 是"] ;
385 -> 386 ;
387 [label="gini = 0.0\nsamples = 2\nvalue = [0, 2]\nclass = 否"] ;
385 -> 387 ;
388 [label="每股收益(期末摊薄，元/股) <= 0.039\ngini = 0.245\nsamples = 7\nvalue = [6, 1]\nclass = 是"] ;
366 -> 388 ;
389 [label="gini = 0.0\nsamples = 1\nvalue = [0, 1]\nclass = 否"] ;
388 -> 389 ;
390 [label="gini = 0.0\nsamples = 6\nvalue = [6, 0]\nclass = 是"] ;
388 -> 390 ;
391 [label="gini = 0.0\nsamples = 2\nvalue = [0, 2]\nclass = 否"] ;
365 -> 391 ;
392 [label="每股收益(期末摊薄，元/股) <= 0.217\ngini = 0.257\nsamples = 33\nvalue = [28, 5]\nclass = 是"] ;
364 -> 392 ;
393 [label="gini = 0.0\nsamples = 12\nvalue = [12, 0]\nclass = 是"] ;
392 -> 393 ;
394 [label="近两年送转比例 <= 0.977\ngini = 0.363\nsamples = 21\nvalue = [16, 5]\nclass = 是"] ;
392 -> 394 ;
395 [label="每股现金流量净额(元/股) <= 2.616\ngini = 0.459\nsamples = 14\nvalue = [9, 5]\nclass = 是"] ;
394 -> 395 ;
396 [label="近两年送转比例 <= 0.365\ngini = 0.426\nsamples = 13\nvalue = [9, 4]\nclass = 是"] ;
395 -> 396 ;
397 [label="实收资本(或股本) <= -0.126\ngini = 0.375\nsamples = 4\nvalue = [1, 3]\nclass = 否"] ;
396 -> 397 ;
398 [label="gini = 0.0\nsamples = 1\nvalue = [1, 0]\nclass = 是"] ;
397 -> 398 ;
399 [label="gini = 0.0\nsamples = 3\nvalue = [0, 3]\nclass = 否"] ;
397 -> 399 ;
400 [label="近两年送转比例 <= 0.671\ngini = 0.198\nsamples = 9\nvalue = [8, 1]\nclass = 是"] ;
396 -> 400 ;
401 [label="实收资本(或股本) <= -0.123\ngini = 0.375\nsamples = 4\nvalue = [3, 1]\nclass = 是"] ;
400 -> 401 ;
402 [label="gini = 0.0\nsamples = 2\nvalue = [2, 0]\nclass = 是"] ;
401 -> 402 ;
403 [label="gini = 0.5\nsamples = 2\nvalue = [1, 1]\nclass = 是"] ;
401 -> 403 ;
404 [label="gini = 0.0\nsamples = 5\nvalue = [5, 0]\nclass = 是"] ;
400 -> 404 ;
405 [label="gini = 0.0\nsamples = 1\nvalue = [0, 1]\nclass = 否"] ;
395 -> 405 ;
406 [label="gini = 0.0\nsamples = 7\nvalue = [7, 0]\nclass = 是"] ;
394 -> 406 ;
407 [label="每股净资产(元/股) <= 0.705\ngini = 0.444\nsamples = 3\nvalue = [1, 2]\nclass = 否"] ;
363 -> 407 ;
408 [label="gini = 0.0\nsamples = 1\nvalue = [1, 0]\nclass = 是"] ;
407 -> 408 ;
409 [label="gini = 0.0\nsamples = 2\nvalue = [0, 2]\nclass = 否"] ;
407 -> 409 ;
410 [label="每股资本公积(元/股)+每股未分配利润(元/股) <= 0.598\ngini = 0.204\nsamples = 26\nvalue = [23, 3]\nclass = 是"] ;
362 -> 410 ;
411 [label="超涨或超跌 <= 0.577\ngini = 0.444\nsamples = 6\nvalue = [4, 2]\nclass = 是"] ;
410 -> 411 ;
412 [label="gini = 0.0\nsamples = 4\nvalue = [4, 0]\nclass = 是"] ;
411 -> 412 ;
413 [label="gini = 0.0\nsamples = 2\nvalue = [0, 2]\nclass = 否"] ;
411 -> 413 ;
414 [label="每股收益(期末摊薄，元/股) <= 0.36\ngini = 0.095\nsamples = 20\nvalue = [19, 1]\nclass = 是"] ;
410 -> 414 ;
415 [label="gini = 0.0\nsamples = 13\nvalue = [13, 0]\nclass = 是"] ;
414 -> 415 ;
416 [label="每股净资产(元/股) <= 0.614\ngini = 0.245\nsamples = 7\nvalue = [6, 1]\nclass = 是"] ;
414 -> 416 ;
417 [label="gini = 0.0\nsamples = 3\nvalue = [3, 0]\nclass = 是"] ;
416 -> 417 ;
418 [label="每股资本公积(元/股)+每股未分配利润(元/股) <= 0.73\ngini = 0.375\nsamples = 4\nvalue = [3, 1]\nclass = 是"] ;
416 -> 418 ;
419 [label="gini = 0.0\nsamples = 1\nvalue = [0, 1]\nclass = 否"] ;
418 -> 419 ;
420 [label="gini = 0.0\nsamples = 3\nvalue = [3, 0]\nclass = 是"] ;
418 -> 420 ;
421 [label="每股净资产(元/股) <= 0.53\ngini = 0.48\nsamples = 85\nvalue = [51, 34]\nclass = 是"] ;
205 -> 421 ;
422 [label="每股现金流量净额(元/股) <= 2.177\ngini = 0.499\nsamples = 54\nvalue = [28, 26]\nclass = 是"] ;
421 -> 422 ;
423 [label="近两年送转比例 <= 1.087\ngini = 0.5\nsamples = 51\nvalue = [25, 26]\nclass = 否"] ;
422 -> 423 ;
424 [label="近两年送转比例 <= 0.357\ngini = 0.478\nsamples = 38\nvalue = [15, 23]\nclass = 否"] ;
423 -> 424 ;
425 [label="营业总收入同必增长(%) <= -0.008\ngini = 0.498\nsamples = 30\nvalue = [14, 16]\nclass = 否"] ;
424 -> 425 ;
426 [label="交易日平均价 <= -0.053\ngini = 0.375\nsamples = 8\nvalue = [6, 2]\nclass = 是"] ;
425 -> 426 ;
427 [label="gini = 0.0\nsamples = 2\nvalue = [0, 2]\nclass = 否"] ;
426 -> 427 ;
428 [label="gini = 0.0\nsamples = 6\nvalue = [6, 0]\nclass = 是"] ;
426 -> 428 ;
429 [label="每股收益(期末摊薄，元/股) <= 1.597\ngini = 0.463\nsamples = 22\nvalue = [8, 14]\nclass = 否"] ;
425 -> 429 ;
430 [label="交易日平均价 <= 6.105\ngini = 0.48\nsamples = 20\nvalue = [8, 12]\nclass = 否"] ;
429 -> 430 ;
431 [label="实收资本(或股本) <= -0.114\ngini = 0.465\nsamples = 19\nvalue = [7, 12]\nclass = 否"] ;
430 -> 431 ;
432 [label="每股资本公积(元/股)+每股未分配利润(元/股) <= 0.206\ngini = 0.245\nsamples = 7\nvalue = [1, 6]\nclass = 否"] ;
431 -> 432 ;
433 [label="gini = 0.0\nsamples = 1\nvalue = [1, 0]\nclass = 是"] ;
432 -> 433 ;
434 [label="gini = 0.0\nsamples = 6\nvalue = [0, 6]\nclass = 否"] ;
432 -> 434 ;
435 [label="每股净资产(元/股) <= -0.032\ngini = 0.5\nsamples = 12\nvalue = [6, 6]\nclass = 是"] ;
431 -> 435 ;
436 [label="gini = 0.0\nsamples = 3\nvalue = [0, 3]\nclass = 否"] ;
435 -> 436 ;
437 [label="每股净资产(元/股) <= 0.234\ngini = 0.444\nsamples = 9\nvalue = [6, 3]\nclass = 是"] ;
435 -> 437 ;
438 [label="gini = 0.5\nsamples = 6\nvalue = [3, 3]\nclass = 是"] ;
437 -> 438 ;
439 [label="gini = 0.0\nsamples = 3\nvalue = [3, 0]\nclass = 是"] ;
437 -> 439 ;
440 [label="gini = 0.0\nsamples = 1\nvalue = [1, 0]\nclass = 是"] ;
430 -> 440 ;
441 [label="gini = 0.0\nsamples = 2\nvalue = [0, 2]\nclass = 否"] ;
429 -> 441 ;
442 [label="营业总收入同必增长(%) <= -0.008\ngini = 0.219\nsamples = 8\nvalue = [1, 7]\nclass = 否"] ;
424 -> 442 ;
443 [label="gini = 0.0\nsamples = 5\nvalue = [0, 5]\nclass = 否"] ;
442 -> 443 ;
444 [label="每股净资产(元/股) <= 0.33\ngini = 0.444\nsamples = 3\nvalue = [1, 2]\nclass = 否"] ;
442 -> 444 ;
445 [label="gini = 0.0\nsamples = 2\nvalue = [0, 2]\nclass = 否"] ;
444 -> 445 ;
446 [label="gini = 0.0\nsamples = 1\nvalue = [1, 0]\nclass = 是"] ;
444 -> 446 ;
447 [label="实收资本(或股本) <= -0.016\ngini = 0.355\nsamples = 13\nvalue = [10, 3]\nclass = 是"] ;
423 -> 447 ;
448 [label="营业总收入同必增长(%) <= -0.006\ngini = 0.278\nsamples = 12\nvalue = [10, 2]\nclass = 是"] ;
447 -> 448 ;
449 [label="营业总收入同必增长(%) <= -0.008\ngini = 0.18\nsamples = 10\nvalue = [9, 1]\nclass = 是"] ;
448 -> 449 ;
450 [label="gini = 0.0\nsamples = 6\nvalue = [6, 0]\nclass = 是"] ;
449 -> 450 ;
451 [label="营业总收入同必增长(%) <= -0.007\ngini = 0.375\nsamples = 4\nvalue = [3, 1]\nclass = 是"] ;
449 -> 451 ;
452 [label="gini = 0.0\nsamples = 2\nvalue = [2, 0]\nclass = 是"] ;
451 -> 452 ;
453 [label="gini = 0.5\nsamples = 2\nvalue = [1, 1]\nclass = 是"] ;
451 -> 453 ;
454 [label="gini = 0.5\nsamples = 2\nvalue = [1, 1]\nclass = 是"] ;
448 -> 454 ;
455 [label="gini = 0.0\nsamples = 1\nvalue = [0, 1]\nclass = 否"] ;
447 -> 455 ;
456 [label="gini = 0.0\nsamples = 3\nvalue = [3, 0]\nclass = 是"] ;
422 -> 456 ;
457 [label="年份（年末） <= 2.251\ngini = 0.383\nsamples = 31\nvalue = [23, 8]\nclass = 是"] ;
421 -> 457 ;
458 [label="每股现金流量净额(元/股) <= 1.446\ngini = 0.48\nsamples = 10\nvalue = [4, 6]\nclass = 否"] ;
457 -> 458 ;
459 [label="gini = 0.0\nsamples = 1\nvalue = [1, 0]\nclass = 是"] ;
458 -> 459 ;
460 [label="预增或预减 <= 0.392\ngini = 0.444\nsamples = 9\nvalue = [3, 6]\nclass = 否"] ;
458 -> 460 ;
461 [label="近两年送转比例 <= 1.439\ngini = 0.375\nsamples = 8\nvalue = [2, 6]\nclass = 否"] ;
460 -> 461 ;
462 [label="gini = 0.0\nsamples = 5\nvalue = [0, 5]\nclass = 否"] ;
461 -> 462 ;
463 [label="实收资本(或股本) <= -0.119\ngini = 0.444\nsamples = 3\nvalue = [2, 1]\nclass = 是"] ;
461 -> 463 ;
464 [label="gini = 0.5\nsamples = 2\nvalue = [1, 1]\nclass = 是"] ;
463 -> 464 ;
465 [label="gini = 0.0\nsamples = 1\nvalue = [1, 0]\nclass = 是"] ;
463 -> 465 ;
466 [label="gini = 0.0\nsamples = 1\nvalue = [1, 0]\nclass = 是"] ;
460 -> 466 ;
467 [label="交易日平均价 <= 0.277\ngini = 0.172\nsamples = 21\nvalue = [19, 2]\nclass = 是"] ;
457 -> 467 ;
468 [label="每股收益(期末摊薄，元/股) <= 1.237\ngini = 0.444\nsamples = 6\nvalue = [4, 2]\nclass = 是"] ;
467 -> 468 ;
469 [label="gini = 0.0\nsamples = 4\nvalue = [4, 0]\nclass = 是"] ;
468 -> 469 ;
470 [label="gini = 0.0\nsamples = 2\nvalue = [0, 2]\nclass = 否"] ;
468 -> 470 ;
471 [label="gini = 0.0\nsamples = 15\nvalue = [15, 0]\nclass = 是"] ;
467 -> 471 ;
472 [label="每股净资产(元/股) <= 4.566\ngini = 0.481\nsamples = 362\nvalue = [216, 146]\nclass = 是"] ;
204 -> 472 ;
473 [label="近两年送转比例 <= 1.097\ngini = 0.481\nsamples = 361\nvalue = [216, 145]\nclass = 是"] ;
472 -> 473 ;
474 [label="交易日平均价 <= 1.961\ngini = 0.491\nsamples = 191\nvalue = [108, 83]\nclass = 是"] ;
473 -> 474 ;
475 [label="营业总收入同必增长(%) <= -0.01\ngini = 0.497\nsamples = 152\nvalue = [82, 70]\nclass = 是"] ;
474 -> 475 ;
476 [label="gini = 0.0\nsamples = 5\nvalue = [5, 0]\nclass = 是"] ;
475 -> 476 ;
477 [label="每股收益(期末摊薄，元/股) <= 0.839\ngini = 0.499\nsamples = 147\nvalue = [77, 70]\nclass = 是"] ;
475 -> 477 ;
478 [label="超涨或超跌 <= 0.087\ngini = 0.479\nsamples = 98\nvalue = [59, 39]\nclass = 是"] ;
477 -> 478 ;
479 [label="每股现金流量净额(元/股) <= 3.811\ngini = 0.451\nsamples = 64\nvalue = [42, 22]\nclass = 是"] ;
478 -> 479 ;
480 [label="每股现金流量净额(元/股) <= 1.469\ngini = 0.437\nsamples = 62\nvalue = [42, 20]\nclass = 是"] ;
479 -> 480 ;
481 [label="每股收益(期末摊薄，元/股) <= 0.362\ngini = 0.495\nsamples = 31\nvalue = [17, 14]\nclass = 是"] ;
480 -> 481 ;
482 [label="每股现金流量净额(元/股) <= 0.011\ngini = 0.444\nsamples = 15\nvalue = [10, 5]\nclass = 是"] ;
481 -> 482 ;
483 [label="每股资本公积(元/股)+每股未分配利润(元/股) <= 1.061\ngini = 0.444\nsamples = 3\nvalue = [1, 2]\nclass = 否"] ;
482 -> 483 ;
484 [label="gini = 0.0\nsamples = 1\nvalue = [1, 0]\nclass = 是"] ;
483 -> 484 ;
485 [label="gini = 0.0\nsamples = 2\nvalue = [0, 2]\nclass = 否"] ;
483 -> 485 ;
486 [label="每股现金流量净额(元/股) <= 1.282\ngini = 0.375\nsamples = 12\nvalue = [9, 3]\nclass = 是"] ;
482 -> 486 ;
487 [label="gini = 0.444\nsamples = 9\nvalue = [6, 3]\nclass = 是"] ;
486 -> 487 ;
488 [label="gini = 0.0\nsamples = 3\nvalue = [3, 0]\nclass = 是"] ;
486 -> 488 ;
489 [label="年份（年末） <= 1.093\ngini = 0.492\nsamples = 16\nvalue = [7, 9]\nclass = 否"] ;
481 -> 489 ;
490 [label="近两年送转比例 <= -0.35\ngini = 0.375\nsamples = 4\nvalue = [3, 1]\nclass = 是"] ;
489 -> 490 ;
491 [label="gini = 0.0\nsamples = 2\nvalue = [2, 0]\nclass = 是"] ;
490 -> 491 ;
492 [label="gini = 0.5\nsamples = 2\nvalue = [1, 1]\nclass = 是"] ;
490 -> 492 ;
493 [label="近两年送转比例 <= 0.461\ngini = 0.444\nsamples = 12\nvalue = [4, 8]\nclass = 否"] ;
489 -> 493 ;
494 [label="gini = 0.245\nsamples = 7\nvalue = [1, 6]\nclass = 否"] ;
493 -> 494 ;
495 [label="gini = 0.48\nsamples = 5\nvalue = [3, 2]\nclass = 是"] ;
493 -> 495 ;
496 [label="每股现金流量净额(元/股) <= 2.16\ngini = 0.312\nsamples = 31\nvalue = [25, 6]\nclass = 是"] ;
480 -> 496 ;
497 [label="gini = 0.0\nsamples = 13\nvalue = [13, 0]\nclass = 是"] ;
496 -> 497 ;
498 [label="每股资本公积(元/股)+每股未分配利润(元/股) <= 1.572\ngini = 0.444\nsamples = 18\nvalue = [12, 6]\nclass = 是"] ;
496 -> 498 ;
499 [label="每股收益(期末摊薄，元/股) <= 0.645\ngini = 0.375\nsamples = 16\nvalue = [12, 4]\nclass = 是"] ;
498 -> 499 ;
500 [label="gini = 0.0\nsamples = 8\nvalue = [8, 0]\nclass = 是"] ;
499 -> 500 ;
501 [label="gini = 0.5\nsamples = 8\nvalue = [4, 4]\nclass = 是"] ;
499 -> 501 ;
502 [label="gini = 0.0\nsamples = 2\nvalue = [0, 2]\nclass = 否"] ;
498 -> 502 ;
503 [label="gini = 0.0\nsamples = 2\nvalue = [0, 2]\nclass = 否"] ;
479 -> 503 ;
504 [label="每股资本公积(元/股)+每股未分配利润(元/股) <= 1.79\ngini = 0.5\nsamples = 34\nvalue = [17, 17]\nclass = 是"] ;
478 -> 504 ;
505 [label="每股资本公积(元/股)+每股未分配利润(元/股) <= 1.031\ngini = 0.498\nsamples = 32\nvalue = [17, 15]\nclass = 是"] ;
504 -> 505 ;
506 [label="每股净资产(元/股) <= 0.772\ngini = 0.475\nsamples = 18\nvalue = [7, 11]\nclass = 否"] ;
505 -> 506 ;
507 [label="gini = 0.0\nsamples = 4\nvalue = [0, 4]\nclass = 否"] ;
506 -> 507 ;
508 [label="营业总收入同必增长(%) <= -0.008\ngini = 0.5\nsamples = 14\nvalue = [7, 7]\nclass = 是"] ;
506 -> 508 ;
509 [label="近两年送转比例 <= 0.64\ngini = 0.486\nsamples = 12\nvalue = [7, 5]\nclass = 是"] ;
508 -> 509 ;
510 [label="gini = 0.375\nsamples = 8\nvalue = [6, 2]\nclass = 是"] ;
509 -> 510 ;
511 [label="gini = 0.375\nsamples = 4\nvalue = [1, 3]\nclass = 否"] ;
509 -> 511 ;
512 [label="gini = 0.0\nsamples = 2\nvalue = [0, 2]\nclass = 否"] ;
508 -> 512 ;
513 [label="每股现金流量净额(元/股) <= 2.19\ngini = 0.408\nsamples = 14\nvalue = [10, 4]\nclass = 是"] ;
505 -> 513 ;
514 [label="gini = 0.0\nsamples = 4\nvalue = [4, 0]\nclass = 是"] ;
513 -> 514 ;
515 [label="每股收益(期末摊薄，元/股) <= 0.106\ngini = 0.48\nsamples = 10\nvalue = [6, 4]\nclass = 是"] ;
513 -> 515 ;
516 [label="gini = 0.0\nsamples = 1\nvalue = [1, 0]\nclass = 是"] ;
515 -> 516 ;
517 [label="交易日平均价 <= 0.92\ngini = 0.494\nsamples = 9\nvalue = [5, 4]\nclass = 是"] ;
515 -> 517 ;
518 [label="gini = 0.5\nsamples = 8\nvalue = [4, 4]\nclass = 是"] ;
517 -> 518 ;
519 [label="gini = 0.0\nsamples = 1\nvalue = [1, 0]\nclass = 是"] ;
517 -> 519 ;
520 [label="gini = 0.0\nsamples = 2\nvalue = [0, 2]\nclass = 否"] ;
504 -> 520 ;
521 [label="超涨或超跌 <= 0.108\ngini = 0.465\nsamples = 49\nvalue = [18, 31]\nclass = 否"] ;
477 -> 521 ;
522 [label="实收资本(或股本) <= 0.38\ngini = 0.426\nsamples = 39\nvalue = [12, 27]\nclass = 否"] ;
521 -> 522 ;
523 [label="年份（年末） <= 1.72\ngini = 0.411\nsamples = 38\nvalue = [11, 27]\nclass = 否"] ;
522 -> 523 ;
524 [label="实收资本(或股本) <= -0.114\ngini = 0.5\nsamples = 8\nvalue = [4, 4]\nclass = 是"] ;
523 -> 524 ;
525 [label="营业总收入同必增长(%) <= -0.008\ngini = 0.444\nsamples = 6\nvalue = [2, 4]\nclass = 否"] ;
524 -> 525 ;
526 [label="gini = 0.0\nsamples = 3\nvalue = [0, 3]\nclass = 否"] ;
525 -> 526 ;
527 [label="预增或预减 <= -0.921\ngini = 0.444\nsamples = 3\nvalue = [2, 1]\nclass = 是"] ;
525 -> 527 ;
528 [label="gini = 0.0\nsamples = 1\nvalue = [0, 1]\nclass = 否"] ;
527 -> 528 ;
529 [label="gini = 0.0\nsamples = 2\nvalue = [2, 0]\nclass = 是"] ;
527 -> 529 ;
530 [label="gini = 0.0\nsamples = 2\nvalue = [2, 0]\nclass = 是"] ;
524 -> 530 ;
531 [label="年份（年末） <= 3.568\ngini = 0.358\nsamples = 30\nvalue = [7, 23]\nclass = 否"] ;
523 -> 531 ;
532 [label="每股净资产(元/股) <= 1.218\ngini = 0.49\nsamples = 7\nvalue = [3, 4]\nclass = 否"] ;
531 -> 532 ;
533 [label="gini = 0.0\nsamples = 2\nvalue = [2, 0]\nclass = 是"] ;
532 -> 533 ;
534 [label="每股资本公积(元/股)+每股未分配利润(元/股) <= 1.633\ngini = 0.32\nsamples = 5\nvalue = [1, 4]\nclass = 否"] ;
532 -> 534 ;
535 [label="gini = 0.5\nsamples = 2\nvalue = [1, 1]\nclass = 是"] ;
534 -> 535 ;
536 [label="gini = 0.0\nsamples = 3\nvalue = [0, 3]\nclass = 否"] ;
534 -> 536 ;
537 [label="营业总收入同必增长(%) <= -0.009\ngini = 0.287\nsamples = 23\nvalue = [4, 19]\nclass = 否"] ;
531 -> 537 ;
538 [label="gini = 0.5\nsamples = 2\nvalue = [1, 1]\nclass = 是"] ;
537 -> 538 ;
539 [label="每股净资产(元/股) <= 1.925\ngini = 0.245\nsamples = 21\nvalue = [3, 18]\nclass = 否"] ;
537 -> 539 ;
540 [label="gini = 0.291\nsamples = 17\nvalue = [3, 14]\nclass = 否"] ;
539 -> 540 ;
541 [label="gini = 0.0\nsamples = 4\nvalue = [0, 4]\nclass = 否"] ;
539 -> 541 ;
542 [label="gini = 0.0\nsamples = 1\nvalue = [1, 0]\nclass = 是"] ;
522 -> 542 ;
543 [label="每股现金流量净额(元/股) <= 2.501\ngini = 0.48\nsamples = 10\nvalue = [6, 4]\nclass = 是"] ;
521 -> 543 ;
544 [label="预增或预减 <= 0.625\ngini = 0.32\nsamples = 5\nvalue = [4, 1]\nclass = 是"] ;
543 -> 544 ;
545 [label="gini = 0.0\nsamples = 4\nvalue = [4, 0]\nclass = 是"] ;
544 -> 545 ;
546 [label="gini = 0.0\nsamples = 1\nvalue = [0, 1]\nclass = 否"] ;
544 -> 546 ;
547 [label="营业总收入同必增长(%) <= -0.008\ngini = 0.48\nsamples = 5\nvalue = [2, 3]\nclass = 否"] ;
543 -> 547 ;
548 [label="交易日平均价 <= 0.037\ngini = 0.444\nsamples = 3\nvalue = [2, 1]\nclass = 是"] ;
547 -> 548 ;
549 [label="gini = 0.0\nsamples = 1\nvalue = [0, 1]\nclass = 否"] ;
548 -> 549 ;
550 [label="gini = 0.0\nsamples = 2\nvalue = [2, 0]\nclass = 是"] ;
548 -> 550 ;
551 [label="gini = 0.0\nsamples = 2\nvalue = [0, 2]\nclass = 否"] ;
547 -> 551 ;
552 [label="交易日平均价 <= 2.78\ngini = 0.444\nsamples = 39\nvalue = [26, 13]\nclass = 是"] ;
474 -> 552 ;
553 [label="近两年送转比例 <= -0.376\ngini = 0.498\nsamples = 17\nvalue = [8, 9]\nclass = 否"] ;
552 -> 553 ;
554 [label="gini = 0.0\nsamples = 3\nvalue = [0, 3]\nclass = 否"] ;
553 -> 554 ;
555 [label="每股现金流量净额(元/股) <= 1.259\ngini = 0.49\nsamples = 14\nvalue = [8, 6]\nclass = 是"] ;
553 -> 555 ;
556 [label="近两年送转比例 <= 0.383\ngini = 0.48\nsamples = 10\nvalue = [4, 6]\nclass = 否"] ;
555 -> 556 ;
557 [label="交易日平均价 <= 2.053\ngini = 0.245\nsamples = 7\nvalue = [1, 6]\nclass = 否"] ;
556 -> 557 ;
558 [label="gini = 0.5\nsamples = 2\nvalue = [1, 1]\nclass = 是"] ;
557 -> 558 ;
559 [label="gini = 0.0\nsamples = 5\nvalue = [0, 5]\nclass = 否"] ;
557 -> 559 ;
560 [label="gini = 0.0\nsamples = 3\nvalue = [3, 0]\nclass = 是"] ;
556 -> 560 ;
561 [label="gini = 0.0\nsamples = 4\nvalue = [4, 0]\nclass = 是"] ;
555 -> 561 ;
562 [label="近两年送转比例 <= 0.325\ngini = 0.298\nsamples = 22\nvalue = [18, 4]\nclass = 是"] ;
552 -> 562 ;
563 [label="超涨或超跌 <= 0.08\ngini = 0.375\nsamples = 16\nvalue = [12, 4]\nclass = 是"] ;
562 -> 563 ;
564 [label="预增或预减 <= -0.685\ngini = 0.32\nsamples = 15\nvalue = [12, 3]\nclass = 是"] ;
563 -> 564 ;
565 [label="gini = 0.0\nsamples = 1\nvalue = [0, 1]\nclass = 否"] ;
564 -> 565 ;
566 [label="预增或预减 <= 0.298\ngini = 0.245\nsamples = 14\nvalue = [12, 2]\nclass = 是"] ;
564 -> 566 ;
567 [label="近两年送转比例 <= -0.333\ngini = 0.346\nsamples = 9\nvalue = [7, 2]\nclass = 是"] ;
566 -> 567 ;
568 [label="每股收益(期末摊薄，元/股) <= 0.331\ngini = 0.444\nsamples = 6\nvalue = [4, 2]\nclass = 是"] ;
567 -> 568 ;
569 [label="gini = 0.0\nsamples = 3\nvalue = [3, 0]\nclass = 是"] ;
568 -> 569 ;
570 [label="每股现金流量净额(元/股) <= 2.257\ngini = 0.444\nsamples = 3\nvalue = [1, 2]\nclass = 否"] ;
568 -> 570 ;
571 [label="gini = 0.0\nsamples = 2\nvalue = [0, 2]\nclass = 否"] ;
570 -> 571 ;
572 [label="gini = 0.0\nsamples = 1\nvalue = [1, 0]\nclass = 是"] ;
570 -> 572 ;
573 [label="gini = 0.0\nsamples = 3\nvalue = [3, 0]\nclass = 是"] ;
567 -> 573 ;
574 [label="gini = 0.0\nsamples = 5\nvalue = [5, 0]\nclass = 是"] ;
566 -> 574 ;
575 [label="gini = 0.0\nsamples = 1\nvalue = [0, 1]\nclass = 否"] ;
563 -> 575 ;
576 [label="gini = 0.0\nsamples = 6\nvalue = [6, 0]\nclass = 是"] ;
562 -> 576 ;
577 [label="营业总收入同必增长(%) <= -0.006\ngini = 0.463\nsamples = 170\nvalue = [108, 62]\nclass = 是"] ;
473 -> 577 ;
578 [label="实收资本(或股本) <= -0.12\ngini = 0.458\nsamples = 166\nvalue = [107, 59]\nclass = 是"] ;
577 -> 578 ;
579 [label="超涨或超跌 <= 0.037\ngini = 0.474\nsamples = 135\nvalue = [83, 52]\nclass = 是"] ;
578 -> 579 ;
580 [label="每股资本公积(元/股)+每股未分配利润(元/股) <= 2.132\ngini = 0.495\nsamples = 82\nvalue = [45, 37]\nclass = 是"] ;
579 -> 580 ;
581 [label="近两年送转比例 <= 3.224\ngini = 0.472\nsamples = 55\nvalue = [34, 21]\nclass = 是"] ;
580 -> 581 ;
582 [label="营业总收入同必增长(%) <= -0.007\ngini = 0.46\nsamples = 53\nvalue = [34, 19]\nclass = 是"] ;
581 -> 582 ;
583 [label="实收资本(或股本) <= -0.125\ngini = 0.444\nsamples = 48\nvalue = [32, 16]\nclass = 是"] ;
582 -> 583 ;
584 [label="近两年送转比例 <= 2.177\ngini = 0.48\nsamples = 35\nvalue = [21, 14]\nclass = 是"] ;
583 -> 584 ;
585 [label="预增或预减 <= 0.085\ngini = 0.488\nsamples = 19\nvalue = [8, 11]\nclass = 否"] ;
584 -> 585 ;
586 [label="gini = 0.43\nsamples = 16\nvalue = [5, 11]\nclass = 否"] ;
585 -> 586 ;
587 [label="gini = 0.0\nsamples = 3\nvalue = [3, 0]\nclass = 是"] ;
585 -> 587 ;
588 [label="预增或预减 <= 0.446\ngini = 0.305\nsamples = 16\nvalue = [13, 3]\nclass = 是"] ;
584 -> 588 ;
589 [label="gini = 0.153\nsamples = 12\nvalue = [11, 1]\nclass = 是"] ;
588 -> 589 ;
590 [label="gini = 0.5\nsamples = 4\nvalue = [2, 2]\nclass = 是"] ;
588 -> 590 ;
591 [label="交易日平均价 <= -0.298\ngini = 0.26\nsamples = 13\nvalue = [11, 2]\nclass = 是"] ;
583 -> 591 ;
592 [label="gini = 0.0\nsamples = 9\nvalue = [9, 0]\nclass = 是"] ;
591 -> 592 ;
593 [label="交易日平均价 <= 0.352\ngini = 0.5\nsamples = 4\nvalue = [2, 2]\nclass = 是"] ;
591 -> 593 ;
594 [label="gini = 0.0\nsamples = 2\nvalue = [2, 0]\nclass = 是"] ;
593 -> 594 ;
595 [label="gini = 0.0\nsamples = 2\nvalue = [0, 2]\nclass = 否"] ;
593 -> 595 ;
596 [label="每股现金流量净额(元/股) <= 1.761\ngini = 0.48\nsamples = 5\nvalue = [2, 3]\nclass = 否"] ;
582 -> 596 ;
597 [label="gini = 0.0\nsamples = 2\nvalue = [2, 0]\nclass = 是"] ;
596 -> 597 ;
598 [label="gini = 0.0\nsamples = 3\nvalue = [0, 3]\nclass = 否"] ;
596 -> 598 ;
599 [label="gini = 0.0\nsamples = 2\nvalue = [0, 2]\nclass = 否"] ;
581 -> 599 ;
600 [label="交易日平均价 <= 3.744\ngini = 0.483\nsamples = 27\nvalue = [11, 16]\nclass = 否"] ;
580 -> 600 ;
601 [label="交易日平均价 <= 0.095\ngini = 0.473\nsamples = 26\nvalue = [10, 16]\nclass = 否"] ;
600 -> 601 ;
602 [label="营业总收入同必增长(%) <= -0.009\ngini = 0.346\nsamples = 18\nvalue = [4, 14]\nclass = 否"] ;
601 -> 602 ;
603 [label="每股净资产(元/股) <= 2.612\ngini = 0.444\nsamples = 3\nvalue = [2, 1]\nclass = 是"] ;
602 -> 603 ;
604 [label="gini = 0.0\nsamples = 2\nvalue = [2, 0]\nclass = 是"] ;
603 -> 604 ;
605 [label="gini = 0.0\nsamples = 1\nvalue = [0, 1]\nclass = 否"] ;
603 -> 605 ;
606 [label="实收资本(或股本) <= -0.125\ngini = 0.231\nsamples = 15\nvalue = [2, 13]\nclass = 否"] ;
602 -> 606 ;
607 [label="gini = 0.0\nsamples = 9\nvalue = [0, 9]\nclass = 否"] ;
606 -> 607 ;
608 [label="实收资本(或股本) <= -0.123\ngini = 0.444\nsamples = 6\nvalue = [2, 4]\nclass = 否"] ;
606 -> 608 ;
609 [label="gini = 0.0\nsamples = 3\nvalue = [0, 3]\nclass = 否"] ;
608 -> 609 ;
610 [label="gini = 0.444\nsamples = 3\nvalue = [2, 1]\nclass = 是"] ;
608 -> 610 ;
611 [label="每股现金流量净额(元/股) <= 1.467\ngini = 0.375\nsamples = 8\nvalue = [6, 2]\nclass = 是"] ;
601 -> 611 ;
612 [label="gini = 0.0\nsamples = 1\nvalue = [0, 1]\nclass = 否"] ;
611 -> 612 ;
613 [label="每股收益(期末摊薄，元/股) <= 2.592\ngini = 0.245\nsamples = 7\nvalue = [6, 1]\nclass = 是"] ;
611 -> 613 ;
614 [label="gini = 0.0\nsamples = 6\nvalue = [6, 0]\nclass = 是"] ;
613 -> 614 ;
615 [label="gini = 0.0\nsamples = 1\nvalue = [0, 1]\nclass = 否"] ;
613 -> 615 ;
616 [label="gini = 0.0\nsamples = 1\nvalue = [1, 0]\nclass = 是"] ;
600 -> 616 ;
617 [label="实收资本(或股本) <= -0.125\ngini = 0.406\nsamples = 53\nvalue = [38, 15]\nclass = 是"] ;
579 -> 617 ;
618 [label="每股现金流量净额(元/股) <= 3.655\ngini = 0.328\nsamples = 29\nvalue = [23, 6]\nclass = 是"] ;
617 -> 618 ;
619 [label="交易日平均价 <= 0.911\ngini = 0.375\nsamples = 24\nvalue = [18, 6]\nclass = 是"] ;
618 -> 619 ;
620 [label="预增或预减 <= -0.977\ngini = 0.432\nsamples = 19\nvalue = [13, 6]\nclass = 是"] ;
619 -> 620 ;
621 [label="gini = 0.0\nsamples = 1\nvalue = [0, 1]\nclass = 否"] ;
620 -> 621 ;
622 [label="每股资本公积(元/股)+每股未分配利润(元/股) <= 1.247\ngini = 0.401\nsamples = 18\nvalue = [13, 5]\nclass = 是"] ;
620 -> 622 ;
623 [label="实收资本(或股本) <= -0.128\ngini = 0.278\nsamples = 6\nvalue = [5, 1]\nclass = 是"] ;
622 -> 623 ;
624 [label="gini = 0.5\nsamples = 2\nvalue = [1, 1]\nclass = 是"] ;
623 -> 624 ;
625 [label="gini = 0.0\nsamples = 4\nvalue = [4, 0]\nclass = 是"] ;
623 -> 625 ;
626 [label="预增或预减 <= 0.912\ngini = 0.444\nsamples = 12\nvalue = [8, 4]\nclass = 是"] ;
622 -> 626 ;
627 [label="gini = 0.397\nsamples = 11\nvalue = [8, 3]\nclass = 是"] ;
626 -> 627 ;
628 [label="gini = 0.0\nsamples = 1\nvalue = [0, 1]\nclass = 否"] ;
626 -> 628 ;
629 [label="gini = 0.0\nsamples = 5\nvalue = [5, 0]\nclass = 是"] ;
619 -> 629 ;
630 [label="gini = 0.0\nsamples = 5\nvalue = [5, 0]\nclass = 是"] ;
618 -> 630 ;
631 [label="预增或预减 <= 0.165\ngini = 0.469\nsamples = 24\nvalue = [15, 9]\nclass = 是"] ;
617 -> 631 ;
632 [label="每股资本公积(元/股)+每股未分配利润(元/股) <= 1.165\ngini = 0.388\nsamples = 19\nvalue = [14, 5]\nclass = 是"] ;
631 -> 632 ;
633 [label="每股资本公积(元/股)+每股未分配利润(元/股) <= 0.994\ngini = 0.5\nsamples = 4\nvalue = [2, 2]\nclass = 是"] ;
632 -> 633 ;
634 [label="gini = 0.0\nsamples = 2\nvalue = [2, 0]\nclass = 是"] ;
633 -> 634 ;
635 [label="gini = 0.0\nsamples = 2\nvalue = [0, 2]\nclass = 否"] ;
633 -> 635 ;
636 [label="近两年送转比例 <= 2.38\ngini = 0.32\nsamples = 15\nvalue = [12, 3]\nclass = 是"] ;
632 -> 636 ;
637 [label="每股净资产(元/股) <= 1.678\ngini = 0.5\nsamples = 4\nvalue = [2, 2]\nclass = 是"] ;
636 -> 637 ;
638 [label="gini = 0.0\nsamples = 2\nvalue = [0, 2]\nclass = 否"] ;
637 -> 638 ;
639 [label="gini = 0.0\nsamples = 2\nvalue = [2, 0]\nclass = 是"] ;
637 -> 639 ;
640 [label="营业总收入同必增长(%) <= -0.008\ngini = 0.165\nsamples = 11\nvalue = [10, 1]\nclass = 是"] ;
636 -> 640 ;
641 [label="gini = 0.0\nsamples = 5\nvalue = [5, 0]\nclass = 是"] ;
640 -> 641 ;
642 [label="每股收益(期末摊薄，元/股) <= 1.037\ngini = 0.278\nsamples = 6\nvalue = [5, 1]\nclass = 是"] ;
640 -> 642 ;
643 [label="gini = 0.5\nsamples = 2\nvalue = [1, 1]\nclass = 是"] ;
642 -> 643 ;
644 [label="gini = 0.0\nsamples = 4\nvalue = [4, 0]\nclass = 是"] ;
642 -> 644 ;
645 [label="每股现金流量净额(元/股) <= 4.058\ngini = 0.32\nsamples = 5\nvalue = [1, 4]\nclass = 否"] ;
631 -> 645 ;
646 [label="gini = 0.0\nsamples = 4\nvalue = [0, 4]\nclass = 否"] ;
645 -> 646 ;
647 [label="gini = 0.0\nsamples = 1\nvalue = [1, 0]\nclass = 是"] ;
645 -> 647 ;
648 [label="每股收益(期末摊薄，元/股) <= 3.679\ngini = 0.35\nsamples = 31\nvalue = [24, 7]\nclass = 是"] ;
578 -> 648 ;
649 [label="预增或预减 <= 0.147\ngini = 0.32\nsamples = 30\nvalue = [24, 6]\nclass = 是"] ;
648 -> 649 ;
650 [label="实收资本(或股本) <= -0.119\ngini = 0.408\nsamples = 21\nvalue = [15, 6]\nclass = 是"] ;
649 -> 650 ;
651 [label="gini = 0.0\nsamples = 6\nvalue = [6, 0]\nclass = 是"] ;
650 -> 651 ;
652 [label="实收资本(或股本) <= -0.087\ngini = 0.48\nsamples = 15\nvalue = [9, 6]\nclass = 是"] ;
650 -> 652 ;
653 [label="每股净资产(元/股) <= 1.083\ngini = 0.426\nsamples = 13\nvalue = [9, 4]\nclass = 是"] ;
652 -> 653 ;
654 [label="近两年送转比例 <= 2.266\ngini = 0.48\nsamples = 5\nvalue = [2, 3]\nclass = 否"] ;
653 -> 654 ;
655 [label="营业总收入同必增长(%) <= -0.008\ngini = 0.375\nsamples = 4\nvalue = [1, 3]\nclass = 否"] ;
654 -> 655 ;
656 [label="gini = 0.0\nsamples = 2\nvalue = [0, 2]\nclass = 否"] ;
655 -> 656 ;
657 [label="gini = 0.5\nsamples = 2\nvalue = [1, 1]\nclass = 是"] ;
655 -> 657 ;
658 [label="gini = 0.0\nsamples = 1\nvalue = [1, 0]\nclass = 是"] ;
654 -> 658 ;
659 [label="超涨或超跌 <= 0.184\ngini = 0.219\nsamples = 8\nvalue = [7, 1]\nclass = 是"] ;
653 -> 659 ;
660 [label="gini = 0.0\nsamples = 7\nvalue = [7, 0]\nclass = 是"] ;
659 -> 660 ;
661 [label="gini = 0.0\nsamples = 1\nvalue = [0, 1]\nclass = 否"] ;
659 -> 661 ;
662 [label="gini = 0.0\nsamples = 2\nvalue = [0, 2]\nclass = 否"] ;
652 -> 662 ;
663 [label="gini = 0.0\nsamples = 9\nvalue = [9, 0]\nclass = 是"] ;
649 -> 663 ;
664 [label="gini = 0.0\nsamples = 1\nvalue = [0, 1]\nclass = 否"] ;
648 -> 664 ;
665 [label="实收资本(或股本) <= -0.118\ngini = 0.375\nsamples = 4\nvalue = [1, 3]\nclass = 否"] ;
577 -> 665 ;
666 [label="gini = 0.0\nsamples = 3\nvalue = [0, 3]\nclass = 否"] ;
665 -> 666 ;
667 [label="gini = 0.0\nsamples = 1\nvalue = [1, 0]\nclass = 是"] ;
665 -> 667 ;
668 [label="gini = 0.0\nsamples = 1\nvalue = [0, 1]\nclass = 否"] ;
472 -> 668 ;
669 [label="gini = 0.0\nsamples = 438\nvalue = [438, 0]\nclass = 是"] ;
1 -> 669 ;
670 [label="每股净资产(元/股) <= -0.372\ngini = 0.197\nsamples = 16811\nvalue = [14951, 1860]\nclass = 是"] ;
0 -> 670 [labeldistance=2.5, labelangle=-45, headlabel="False"] ;
671 [label="近两年送转比例 <= -0.166\ngini = 0.086\nsamples = 6443\nvalue = [6154, 289]\nclass = 是"] ;
670 -> 671 ;
672 [label="上市时间 <= 1.346\ngini = 0.063\nsamples = 4922\nvalue = [4763, 159]\nclass = 是"] ;
671 -> 672 ;
673 [label="每股资本公积(元/股)+每股未分配利润(元/股) <= -0.115\ngini = 0.071\nsamples = 3975\nvalue = [3829, 146]\nclass = 是"] ;
672 -> 673 ;
674 [label="每股净资产(元/股) <= -0.509\ngini = 0.07\nsamples = 3972\nvalue = [3828, 144]\nclass = 是"] ;
673 -> 674 ;
675 [label="每股现金流量净额(元/股) <= 1.626\ngini = 0.052\nsamples = 2902\nvalue = [2825, 77]\nclass = 是"] ;
674 -> 675 ;
676 [label="近两年送转比例 <= -0.222\ngini = 0.051\nsamples = 2900\nvalue = [2824, 76]\nclass = 是"] ;
675 -> 676 ;
677 [label="每股资本公积(元/股)+每股未分配利润(元/股) <= -0.643\ngini = 0.049\nsamples = 2878\nvalue = [2806, 72]\nclass = 是"] ;
676 -> 677 ;
678 [label="年份（年末） <= 5.901\ngini = 0.041\nsamples = 2138\nvalue = [2093, 45]\nclass = 是"] ;
677 -> 678 ;
679 [label="超涨或超跌 <= 0.034\ngini = 0.05\nsamples = 1563\nvalue = [1523, 40]\nclass = 是"] ;
678 -> 679 ;
680 [label="每股净资产(元/股) <= -0.962\ngini = 0.042\nsamples = 1214\nvalue = [1188, 26]\nclass = 是"] ;
679 -> 680 ;
681 [label="每股资本公积(元/股)+每股未分配利润(元/股) <= -0.912\ngini = 0.198\nsamples = 9\nvalue = [8, 1]\nclass = 是"] ;
680 -> 681 ;
682 [label="交易日平均价 <= -0.657\ngini = 0.32\nsamples = 5\nvalue = [4, 1]\nclass = 是"] ;
681 -> 682 ;
683 [label="gini = 0.0\nsamples = 1\nvalue = [0, 1]\nclass = 否"] ;
682 -> 683 ;
684 [label="gini = 0.0\nsamples = 4\nvalue = [4, 0]\nclass = 是"] ;
682 -> 684 ;
685 [label="gini = 0.0\nsamples = 4\nvalue = [4, 0]\nclass = 是"] ;
681 -> 685 ;
686 [label="每股净资产(元/股) <= -0.769\ngini = 0.041\nsamples = 1205\nvalue = [1180, 25]\nclass = 是"] ;
680 -> 686 ;
687 [label="每股现金流量净额(元/股) <= 0.149\ngini = 0.025\nsamples = 477\nvalue = [471, 6]\nclass = 是"] ;
686 -> 687 ;
688 [label="年份（年末） <= 4.54\ngini = 0.017\nsamples = 462\nvalue = [458, 4]\nclass = 是"] ;
687 -> 688 ;
689 [label="gini = 0.021\nsamples = 386\nvalue = [382, 4]\nclass = 是"] ;
688 -> 689 ;
690 [label="gini = 0.0\nsamples = 76\nvalue = [76, 0]\nclass = 是"] ;
688 -> 690 ;
691 [label="营业总收入同必增长(%) <= -0.011\ngini = 0.231\nsamples = 15\nvalue = [13, 2]\nclass = 是"] ;
687 -> 691 ;
692 [label="gini = 0.0\nsamples = 1\nvalue = [0, 1]\nclass = 否"] ;
691 -> 692 ;
693 [label="gini = 0.133\nsamples = 14\nvalue = [13, 1]\nclass = 是"] ;
691 -> 693 ;
694 [label="上市时间 <= -0.142\ngini = 0.051\nsamples = 728\nvalue = [709, 19]\nclass = 是"] ;
686 -> 694 ;
695 [label="上市时间 <= -0.773\ngini = 0.114\nsamples = 197\nvalue = [185, 12]\nclass = 是"] ;
694 -> 695 ;
696 [label="gini = 0.043\nsamples = 45\nvalue = [44, 1]\nclass = 是"] ;
695 -> 696 ;
697 [label="gini = 0.134\nsamples = 152\nvalue = [141, 11]\nclass = 是"] ;
695 -> 697 ;
698 [label="预增或预减 <= 0.462\ngini = 0.026\nsamples = 531\nvalue = [524, 7]\nclass = 是"] ;
694 -> 698 ;
699 [label="gini = 0.018\nsamples = 432\nvalue = [428, 4]\nclass = 是"] ;
698 -> 699 ;
700 [label="gini = 0.059\nsamples = 99\nvalue = [96, 3]\nclass = 是"] ;
698 -> 700 ;
701 [label="近两年送转比例 <= -0.466\ngini = 0.077\nsamples = 349\nvalue = [335, 14]\nclass = 是"] ;
679 -> 701 ;
702 [label="每股净资产(元/股) <= -0.653\ngini = 0.067\nsamples = 319\nvalue = [308, 11]\nclass = 是"] ;
701 -> 702 ;
703 [label="每股收益(期末摊薄，元/股) <= -0.143\ngini = 0.081\nsamples = 261\nvalue = [250, 11]\nclass = 是"] ;
702 -> 703 ;
704 [label="交易日平均价 <= -0.11\ngini = 0.07\nsamples = 247\nvalue = [238, 9]\nclass = 是"] ;
703 -> 704 ;
705 [label="gini = 0.085\nsamples = 203\nvalue = [194, 9]\nclass = 是"] ;
704 -> 705 ;
706 [label="gini = 0.0\nsamples = 44\nvalue = [44, 0]\nclass = 是"] ;
704 -> 706 ;
707 [label="每股现金流量净额(元/股) <= 0.106\ngini = 0.245\nsamples = 14\nvalue = [12, 2]\nclass = 是"] ;
703 -> 707 ;
708 [label="gini = 0.142\nsamples = 13\nvalue = [12, 1]\nclass = 是"] ;
707 -> 708 ;
709 [label="gini = 0.0\nsamples = 1\nvalue = [0, 1]\nclass = 否"] ;
707 -> 709 ;
710 [label="gini = 0.0\nsamples = 58\nvalue = [58, 0]\nclass = 是"] ;
702 -> 710 ;
711 [label="营业总收入同必增长(%) <= -0.004\ngini = 0.18\nsamples = 30\nvalue = [27, 3]\nclass = 是"] ;
701 -> 711 ;
712 [label="每股现金流量净额(元/股) <= 0.076\ngini = 0.128\nsamples = 29\nvalue = [27, 2]\nclass = 是"] ;
711 -> 712 ;
713 [label="年份（年末） <= 3.982\ngini = 0.074\nsamples = 26\nvalue = [25, 1]\nclass = 是"] ;
712 -> 713 ;
714 [label="gini = 0.0\nsamples = 21\nvalue = [21, 0]\nclass = 是"] ;
713 -> 714 ;
715 [label="gini = 0.32\nsamples = 5\nvalue = [4, 1]\nclass = 是"] ;
713 -> 715 ;
716 [label="上市时间 <= 0.47\ngini = 0.444\nsamples = 3\nvalue = [2, 1]\nclass = 是"] ;
712 -> 716 ;
717 [label="gini = 0.0\nsamples = 1\nvalue = [0, 1]\nclass = 否"] ;
716 -> 717 ;
718 [label="gini = 0.0\nsamples = 2\nvalue = [2, 0]\nclass = 是"] ;
716 -> 718 ;
719 [label="gini = 0.0\nsamples = 1\nvalue = [0, 1]\nclass = 否"] ;
711 -> 719 ;
720 [label="年份（年末） <= 6.742\ngini = 0.017\nsamples = 575\nvalue = [570, 5]\nclass = 是"] ;
678 -> 720 ;
721 [label="营业总收入同必增长(%) <= 0.004\ngini = 0.035\nsamples = 281\nvalue = [276, 5]\nclass = 是"] ;
720 -> 721 ;
722 [label="近两年送转比例 <= -0.403\ngini = 0.028\nsamples = 280\nvalue = [276, 4]\nclass = 是"] ;
721 -> 722 ;
723 [label="近两年送转比例 <= -0.592\ngini = 0.022\nsamples = 270\nvalue = [267, 3]\nclass = 是"] ;
722 -> 723 ;
724 [label="每股净资产(元/股) <= -0.804\ngini = 0.017\nsamples = 240\nvalue = [238, 2]\nclass = 是"] ;
723 -> 724 ;
725 [label="gini = 0.0\nsamples = 88\nvalue = [88, 0]\nclass = 是"] ;
724 -> 725 ;
726 [label="gini = 0.026\nsamples = 152\nvalue = [150, 2]\nclass = 是"] ;
724 -> 726 ;
727 [label="超涨或超跌 <= 0.751\ngini = 0.064\nsamples = 30\nvalue = [29, 1]\nclass = 是"] ;
723 -> 727 ;
728 [label="gini = 0.0\nsamples = 23\nvalue = [23, 0]\nclass = 是"] ;
727 -> 728 ;
729 [label="gini = 0.245\nsamples = 7\nvalue = [6, 1]\nclass = 是"] ;
727 -> 729 ;
730 [label="交易日平均价 <= -0.401\ngini = 0.18\nsamples = 10\nvalue = [9, 1]\nclass = 是"] ;
722 -> 730 ;
731 [label="每股收益(期末摊薄，元/股) <= -0.036\ngini = 0.375\nsamples = 4\nvalue = [3, 1]\nclass = 是"] ;
730 -> 731 ;
732 [label="gini = 0.0\nsamples = 3\nvalue = [3, 0]\nclass = 是"] ;
731 -> 732 ;
733 [label="gini = 0.0\nsamples = 1\nvalue = [0, 1]\nclass = 否"] ;
731 -> 733 ;
734 [label="gini = 0.0\nsamples = 6\nvalue = [6, 0]\nclass = 是"] ;
730 -> 734 ;
735 [label="gini = 0.0\nsamples = 1\nvalue = [0, 1]\nclass = 否"] ;
721 -> 735 ;
736 [label="gini = 0.0\nsamples = 294\nvalue = [294, 0]\nclass = 是"] ;
720 -> 736 ;
737 [label="年份（年末） <= 4.912\ngini = 0.07\nsamples = 740\nvalue = [713, 27]\nclass = 是"] ;
677 -> 737 ;
738 [label="每股净资产(元/股) <= -0.703\ngini = 0.107\nsamples = 406\nvalue = [383, 23]\nclass = 是"] ;
737 -> 738 ;
739 [label="实收资本(或股本) <= -0.087\ngini = 0.408\nsamples = 7\nvalue = [5, 2]\nclass = 是"] ;
738 -> 739 ;
740 [label="上市时间 <= -0.152\ngini = 0.278\nsamples = 6\nvalue = [5, 1]\nclass = 是"] ;
739 -> 740 ;
741 [label="gini = 0.0\nsamples = 1\nvalue = [0, 1]\nclass = 否"] ;
740 -> 741 ;
742 [label="gini = 0.0\nsamples = 5\nvalue = [5, 0]\nclass = 是"] ;
740 -> 742 ;
743 [label="gini = 0.0\nsamples = 1\nvalue = [0, 1]\nclass = 否"] ;
739 -> 743 ;
744 [label="每股资本公积(元/股)+每股未分配利润(元/股) <= -0.527\ngini = 0.1\nsamples = 399\nvalue = [378, 21]\nclass = 是"] ;
738 -> 744 ;
745 [label="每股资本公积(元/股)+每股未分配利润(元/股) <= -0.548\ngini = 0.092\nsamples = 372\nvalue = [354, 18]\nclass = 是"] ;
744 -> 745 ;
746 [label="近两年送转比例 <= -0.607\ngini = 0.08\nsamples = 337\nvalue = [323, 14]\nclass = 是"] ;
745 -> 746 ;
747 [label="每股现金流量净额(元/股) <= -0.488\ngini = 0.046\nsamples = 212\nvalue = [207, 5]\nclass = 是"] ;
746 -> 747 ;
748 [label="gini = 0.198\nsamples = 18\nvalue = [16, 2]\nclass = 是"] ;
747 -> 748 ;
749 [label="gini = 0.03\nsamples = 194\nvalue = [191, 3]\nclass = 是"] ;
747 -> 749 ;
750 [label="营业总收入同必增长(%) <= -0.007\ngini = 0.134\nsamples = 125\nvalue = [116, 9]\nclass = 是"] ;
746 -> 750 ;
751 [label="gini = 0.121\nsamples = 124\nvalue = [116, 8]\nclass = 是"] ;
750 -> 751 ;
752 [label="gini = 0.0\nsamples = 1\nvalue = [0, 1]\nclass = 否"] ;
750 -> 752 ;
753 [label="每股资本公积(元/股)+每股未分配利润(元/股) <= -0.535\ngini = 0.202\nsamples = 35\nvalue = [31, 4]\nclass = 是"] ;
745 -> 753 ;
754 [label="每股收益(期末摊薄，元/股) <= -0.251\ngini = 0.298\nsamples = 22\nvalue = [18, 4]\nclass = 是"] ;
753 -> 754 ;
755 [label="gini = 0.188\nsamples = 19\nvalue = [17, 2]\nclass = 是"] ;
754 -> 755 ;
756 [label="gini = 0.444\nsamples = 3\nvalue = [1, 2]\nclass = 否"] ;
754 -> 756 ;
757 [label="gini = 0.0\nsamples = 13\nvalue = [13, 0]\nclass = 是"] ;
753 -> 757 ;
758 [label="上市时间 <= -0.798\ngini = 0.198\nsamples = 27\nvalue = [24, 3]\nclass = 是"] ;
744 -> 758 ;
759 [label="每股净资产(元/股) <= -0.516\ngini = 0.375\nsamples = 8\nvalue = [6, 2]\nclass = 是"] ;
758 -> 759 ;
760 [label="gini = 0.0\nsamples = 3\nvalue = [3, 0]\nclass = 是"] ;
759 -> 760 ;
761 [label="近两年送转比例 <= -0.642\ngini = 0.48\nsamples = 5\nvalue = [3, 2]\nclass = 是"] ;
759 -> 761 ;
762 [label="gini = 0.444\nsamples = 3\nvalue = [1, 2]\nclass = 否"] ;
761 -> 762 ;
763 [label="gini = 0.0\nsamples = 2\nvalue = [2, 0]\nclass = 是"] ;
761 -> 763 ;
764 [label="交易日平均价 <= -0.396\ngini = 0.1\nsamples = 19\nvalue = [18, 1]\nclass = 是"] ;
758 -> 764 ;
765 [label="gini = 0.0\nsamples = 14\nvalue = [14, 0]\nclass = 是"] ;
764 -> 765 ;
766 [label="超涨或超跌 <= 0.471\ngini = 0.32\nsamples = 5\nvalue = [4, 1]\nclass = 是"] ;
764 -> 766 ;
767 [label="gini = 0.0\nsamples = 4\nvalue = [4, 0]\nclass = 是"] ;
766 -> 767 ;
768 [label="gini = 0.0\nsamples = 1\nvalue = [0, 1]\nclass = 否"] ;
766 -> 768 ;
769 [label="年份（年末） <= 5.282\ngini = 0.024\nsamples = 334\nvalue = [330, 4]\nclass = 是"] ;
737 -> 769 ;
770 [label="近两年送转比例 <= -0.535\ngini = 0.061\nsamples = 95\nvalue = [92, 3]\nclass = 是"] ;
769 -> 770 ;
771 [label="上市时间 <= -0.033\ngini = 0.024\nsamples = 84\nvalue = [83, 1]\nclass = 是"] ;
770 -> 771 ;
772 [label="gini = 0.0\nsamples = 39\nvalue = [39, 0]\nclass = 是"] ;
771 -> 772 ;
773 [label="每股资本公积(元/股)+每股未分配利润(元/股) <= -0.56\ngini = 0.043\nsamples = 45\nvalue = [44, 1]\nclass = 是"] ;
771 -> 773 ;
774 [label="营业总收入同必增长(%) <= -0.009\ngini = 0.059\nsamples = 33\nvalue = [32, 1]\nclass = 是"] ;
773 -> 774 ;
775 [label="gini = 0.0\nsamples = 9\nvalue = [9, 0]\nclass = 是"] ;
774 -> 775 ;
776 [label="gini = 0.08\nsamples = 24\nvalue = [23, 1]\nclass = 是"] ;
774 -> 776 ;
777 [label="gini = 0.0\nsamples = 12\nvalue = [12, 0]\nclass = 是"] ;
773 -> 777 ;
778 [label="营业总收入同必增长(%) <= -0.006\ngini = 0.298\nsamples = 11\nvalue = [9, 2]\nclass = 是"] ;
770 -> 778 ;
779 [label="营业总收入同必增长(%) <= -0.008\ngini = 0.18\nsamples = 10\nvalue = [9, 1]\nclass = 是"] ;
778 -> 779 ;
780 [label="gini = 0.0\nsamples = 7\nvalue = [7, 0]\nclass = 是"] ;
779 -> 780 ;
781 [label="实收资本(或股本) <= -0.081\ngini = 0.444\nsamples = 3\nvalue = [2, 1]\nclass = 是"] ;
779 -> 781 ;
782 [label="gini = 0.0\nsamples = 2\nvalue = [2, 0]\nclass = 是"] ;
781 -> 782 ;
783 [label="gini = 0.0\nsamples = 1\nvalue = [0, 1]\nclass = 否"] ;
781 -> 783 ;
784 [label="gini = 0.0\nsamples = 1\nvalue = [0, 1]\nclass = 否"] ;
778 -> 784 ;
785 [label="年份（年末） <= 6.553\ngini = 0.008\nsamples = 239\nvalue = [238, 1]\nclass = 是"] ;
769 -> 785 ;
786 [label="近两年送转比例 <= -0.708\ngini = 0.017\nsamples = 118\nvalue = [117, 1]\nclass = 是"] ;
785 -> 786 ;
787 [label="每股资本公积(元/股)+每股未分配利润(元/股) <= -0.619\ngini = 0.046\nsamples = 42\nvalue = [41, 1]\nclass = 是"] ;
786 -> 787 ;
788 [label="每股现金流量净额(元/股) <= -0.11\ngini = 0.219\nsamples = 8\nvalue = [7, 1]\nclass = 是"] ;
787 -> 788 ;
789 [label="gini = 0.0\nsamples = 7\nvalue = [7, 0]\nclass = 是"] ;
788 -> 789 ;
790 [label="gini = 0.0\nsamples = 1\nvalue = [0, 1]\nclass = 否"] ;
788 -> 790 ;
791 [label="gini = 0.0\nsamples = 34\nvalue = [34, 0]\nclass = 是"] ;
787 -> 791 ;
792 [label="gini = 0.0\nsamples = 76\nvalue = [76, 0]\nclass = 是"] ;
786 -> 792 ;
793 [label="gini = 0.0\nsamples = 121\nvalue = [121, 0]\nclass = 是"] ;
785 -> 793 ;
794 [label="预增或预减 <= -0.379\ngini = 0.298\nsamples = 22\nvalue = [18, 4]\nclass = 是"] ;
676 -> 794 ;
795 [label="营业总收入同必增长(%) <= -0.008\ngini = 0.444\nsamples = 3\nvalue = [1, 2]\nclass = 否"] ;
794 -> 795 ;
796 [label="gini = 0.0\nsamples = 2\nvalue = [0, 2]\nclass = 否"] ;
795 -> 796 ;
797 [label="gini = 0.0\nsamples = 1\nvalue = [1, 0]\nclass = 是"] ;
795 -> 797 ;
798 [label="近两年送转比例 <= -0.206\ngini = 0.188\nsamples = 19\nvalue = [17, 2]\nclass = 是"] ;
794 -> 798 ;
799 [label="gini = 0.5\nsamples = 2\nvalue = [1, 1]\nclass = 是"] ;
798 -> 799 ;
800 [label="每股现金流量净额(元/股) <= -0.016\ngini = 0.111\nsamples = 17\nvalue = [16, 1]\nclass = 是"] ;
798 -> 800 ;
801 [label="gini = 0.0\nsamples = 12\nvalue = [12, 0]\nclass = 是"] ;
800 -> 801 ;
802 [label="上市时间 <= 0.401\ngini = 0.32\nsamples = 5\nvalue = [4, 1]\nclass = 是"] ;
800 -> 802 ;
803 [label="gini = 0.0\nsamples = 4\nvalue = [4, 0]\nclass = 是"] ;
802 -> 803 ;
804 [label="gini = 0.0\nsamples = 1\nvalue = [0, 1]\nclass = 否"] ;
802 -> 804 ;
805 [label="gini = 0.5\nsamples = 2\nvalue = [1, 1]\nclass = 是"] ;
675 -> 805 ;
806 [label="上市时间 <= -1.011\ngini = 0.117\nsamples = 1070\nvalue = [1003, 67]\nclass = 是"] ;
674 -> 806 ;
807 [label="每股现金流量净额(元/股) <= 0.659\ngini = 0.307\nsamples = 37\nvalue = [30, 7]\nclass = 是"] ;
806 -> 807 ;
808 [label="每股净资产(元/股) <= -0.398\ngini = 0.278\nsamples = 36\nvalue = [30, 6]\nclass = 是"] ;
807 -> 808 ;
809 [label="超涨或超跌 <= 0.375\ngini = 0.219\nsamples = 32\nvalue = [28, 4]\nclass = 是"] ;
808 -> 809 ;
810 [label="每股收益(期末摊薄，元/股) <= -0.283\ngini = 0.077\nsamples = 25\nvalue = [24, 1]\nclass = 是"] ;
809 -> 810 ;
811 [label="近两年送转比例 <= -0.548\ngini = 0.133\nsamples = 14\nvalue = [13, 1]\nclass = 是"] ;
810 -> 811 ;
812 [label="gini = 0.0\nsamples = 10\nvalue = [10, 0]\nclass = 是"] ;
811 -> 812 ;
813 [label="近两年送转比例 <= -0.489\ngini = 0.375\nsamples = 4\nvalue = [3, 1]\nclass = 是"] ;
811 -> 813 ;
814 [label="gini = 0.5\nsamples = 2\nvalue = [1, 1]\nclass = 是"] ;
813 -> 814 ;
815 [label="gini = 0.0\nsamples = 2\nvalue = [2, 0]\nclass = 是"] ;
813 -> 815 ;
816 [label="gini = 0.0\nsamples = 11\nvalue = [11, 0]\nclass = 是"] ;
810 -> 816 ;
817 [label="交易日平均价 <= 0.488\ngini = 0.49\nsamples = 7\nvalue = [4, 3]\nclass = 是"] ;
809 -> 817 ;
818 [label="营业总收入同必增长(%) <= -0.008\ngini = 0.48\nsamples = 5\nvalue = [2, 3]\nclass = 否"] ;
817 -> 818 ;
819 [label="gini = 0.0\nsamples = 1\nvalue = [1, 0]\nclass = 是"] ;
818 -> 819 ;
820 [label="实收资本(或股本) <= -0.063\ngini = 0.375\nsamples = 4\nvalue = [1, 3]\nclass = 否"] ;
818 -> 820 ;
821 [label="gini = 0.0\nsamples = 3\nvalue = [0, 3]\nclass = 否"] ;
820 -> 821 ;
822 [label="gini = 0.0\nsamples = 1\nvalue = [1, 0]\nclass = 是"] ;
820 -> 822 ;
823 [label="gini = 0.0\nsamples = 2\nvalue = [2, 0]\nclass = 是"] ;
817 -> 823 ;
824 [label="每股收益(期末摊薄，元/股) <= -0.308\ngini = 0.5\nsamples = 4\nvalue = [2, 2]\nclass = 是"] ;
808 -> 824 ;
825 [label="gini = 0.0\nsamples = 2\nvalue = [2, 0]\nclass = 是"] ;
824 -> 825 ;
826 [label="gini = 0.0\nsamples = 2\nvalue = [0, 2]\nclass = 否"] ;
824 -> 826 ;
827 [label="gini = 0.0\nsamples = 1\nvalue = [0, 1]\nclass = 否"] ;
807 -> 827 ;
828 [label="上市时间 <= -0.379\ngini = 0.109\nsamples = 1033\nvalue = [973, 60]\nclass = 是"] ;
806 -> 828 ;
829 [label="年份（年末） <= 4.816\ngini = 0.167\nsamples = 348\nvalue = [316, 32]\nclass = 是"] ;
828 -> 829 ;
830 [label="年份（年末） <= 3.628\ngini = 0.206\nsamples = 180\nvalue = [159, 21]\nclass = 是"] ;
829 -> 830 ;
831 [label="每股净资产(元/股) <= -0.389\ngini = 0.111\nsamples = 136\nvalue = [128, 8]\nclass = 是"] ;
830 -> 831 ;
832 [label="年份（年末） <= 2.333\ngini = 0.082\nsamples = 117\nvalue = [112, 5]\nclass = 是"] ;
831 -> 832 ;
833 [label="近两年送转比例 <= -0.25\ngini = 0.027\nsamples = 73\nvalue = [72, 1]\nclass = 是"] ;
832 -> 833 ;
834 [label="gini = 0.0\nsamples = 67\nvalue = [67, 0]\nclass = 是"] ;
833 -> 834 ;
835 [label="超涨或超跌 <= 0.834\ngini = 0.278\nsamples = 6\nvalue = [5, 1]\nclass = 是"] ;
833 -> 835 ;
836 [label="每股收益(期末摊薄，元/股) <= -0.003\ngini = 0.444\nsamples = 3\nvalue = [2, 1]\nclass = 是"] ;
835 -> 836 ;
837 [label="gini = 0.0\nsamples = 1\nvalue = [0, 1]\nclass = 否"] ;
836 -> 837 ;
838 [label="gini = 0.0\nsamples = 2\nvalue = [2, 0]\nclass = 是"] ;
836 -> 838 ;
839 [label="gini = 0.0\nsamples = 3\nvalue = [3, 0]\nclass = 是"] ;
835 -> 839 ;
840 [label="上市时间 <= -0.601\ngini = 0.165\nsamples = 44\nvalue = [40, 4]\nclass = 是"] ;
832 -> 840 ;
841 [label="预增或预减 <= -0.574\ngini = 0.287\nsamples = 23\nvalue = [19, 4]\nclass = 是"] ;
840 -> 841 ;
842 [label="gini = 0.0\nsamples = 1\nvalue = [0, 1]\nclass = 否"] ;
841 -> 842 ;
843 [label="超涨或超跌 <= 0.666\ngini = 0.236\nsamples = 22\nvalue = [19, 3]\nclass = 是"] ;
841 -> 843 ;
844 [label="gini = 0.117\nsamples = 16\nvalue = [15, 1]\nclass = 是"] ;
843 -> 844 ;
845 [label="gini = 0.444\nsamples = 6\nvalue = [4, 2]\nclass = 是"] ;
843 -> 845 ;
846 [label="gini = 0.0\nsamples = 21\nvalue = [21, 0]\nclass = 是"] ;
840 -> 846 ;
847 [label="交易日平均价 <= -0.325\ngini = 0.266\nsamples = 19\nvalue = [16, 3]\nclass = 是"] ;
831 -> 847 ;
848 [label="每股收益(期末摊薄，元/股) <= -0.382\ngini = 0.208\nsamples = 17\nvalue = [15, 2]\nclass = 是"] ;
847 -> 848 ;
849 [label="每股资本公积(元/股)+每股未分配利润(元/股) <= -0.4\ngini = 0.444\nsamples = 6\nvalue = [4, 2]\nclass = 是"] ;
848 -> 849 ;
850 [label="gini = 0.0\nsamples = 3\nvalue = [3, 0]\nclass = 是"] ;
849 -> 850 ;
851 [label="每股资本公积(元/股)+每股未分配利润(元/股) <= -0.388\ngini = 0.444\nsamples = 3\nvalue = [1, 2]\nclass = 否"] ;
849 -> 851 ;
852 [label="gini = 0.0\nsamples = 1\nvalue = [1, 0]\nclass = 是"] ;
851 -> 852 ;
853 [label="gini = 0.0\nsamples = 2\nvalue = [0, 2]\nclass = 否"] ;
851 -> 853 ;
854 [label="gini = 0.0\nsamples = 11\nvalue = [11, 0]\nclass = 是"] ;
848 -> 854 ;
855 [label="gini = 0.5\nsamples = 2\nvalue = [1, 1]\nclass = 是"] ;
847 -> 855 ;
856 [label="每股净资产(元/股) <= -0.39\ngini = 0.416\nsamples = 44\nvalue = [31, 13]\nclass = 是"] ;
830 -> 856 ;
857 [label="每股净资产(元/股) <= -0.464\ngini = 0.368\nsamples = 37\nvalue = [28, 9]\nclass = 是"] ;
856 -> 857 ;
858 [label="超涨或超跌 <= 0.104\ngini = 0.245\nsamples = 21\nvalue = [18, 3]\nclass = 是"] ;
857 -> 858 ;
859 [label="预增或预减 <= 0.425\ngini = 0.117\nsamples = 16\nvalue = [15, 1]\nclass = 是"] ;
858 -> 859 ;
860 [label="实收资本(或股本) <= -0.082\ngini = 0.165\nsamples = 11\nvalue = [10, 1]\nclass = 是"] ;
859 -> 860 ;
861 [label="gini = 0.0\nsamples = 7\nvalue = [7, 0]\nclass = 是"] ;
860 -> 861 ;
862 [label="gini = 0.375\nsamples = 4\nvalue = [3, 1]\nclass = 是"] ;
860 -> 862 ;
863 [label="gini = 0.0\nsamples = 5\nvalue = [5, 0]\nclass = 是"] ;
859 -> 863 ;
864 [label="交易日平均价 <= -0.314\ngini = 0.48\nsamples = 5\nvalue = [3, 2]\nclass = 是"] ;
858 -> 864 ;
865 [label="近两年送转比例 <= -0.357\ngini = 0.444\nsamples = 3\nvalue = [1, 2]\nclass = 否"] ;
864 -> 865 ;
866 [label="gini = 0.0\nsamples = 2\nvalue = [0, 2]\nclass = 否"] ;
865 -> 866 ;
867 [label="gini = 0.0\nsamples = 1\nvalue = [1, 0]\nclass = 是"] ;
865 -> 867 ;
868 [label="gini = 0.0\nsamples = 2\nvalue = [2, 0]\nclass = 是"] ;
864 -> 868 ;
869 [label="超涨或超跌 <= 0.592\ngini = 0.469\nsamples = 16\nvalue = [10, 6]\nclass = 是"] ;
857 -> 869 ;
870 [label="交易日平均价 <= -0.389\ngini = 0.5\nsamples = 12\nvalue = [6, 6]\nclass = 是"] ;
869 -> 870 ;
871 [label="近两年送转比例 <= -0.659\ngini = 0.375\nsamples = 8\nvalue = [2, 6]\nclass = 否"] ;
870 -> 871 ;
872 [label="gini = 0.0\nsamples = 1\nvalue = [1, 0]\nclass = 是"] ;
871 -> 872 ;
873 [label="gini = 0.245\nsamples = 7\nvalue = [1, 6]\nclass = 否"] ;
871 -> 873 ;
874 [label="gini = 0.0\nsamples = 4\nvalue = [4, 0]\nclass = 是"] ;
870 -> 874 ;
875 [label="gini = 0.0\nsamples = 4\nvalue = [4, 0]\nclass = 是"] ;
869 -> 875 ;
876 [label="营业总收入同必增长(%) <= -0.001\ngini = 0.49\nsamples = 7\nvalue = [3, 4]\nclass = 否"] ;
856 -> 876 ;
877 [label="交易日平均价 <= -0.419\ngini = 0.444\nsamples = 6\nvalue = [2, 4]\nclass = 否"] ;
876 -> 877 ;
878 [label="gini = 0.0\nsamples = 3\nvalue = [0, 3]\nclass = 否"] ;
877 -> 878 ;
879 [label="上市时间 <= -0.592\ngini = 0.444\nsamples = 3\nvalue = [2, 1]\nclass = 是"] ;
877 -> 879 ;
880 [label="gini = 0.0\nsamples = 1\nvalue = [0, 1]\nclass = 否"] ;
879 -> 880 ;
881 [label="gini = 0.0\nsamples = 2\nvalue = [2, 0]\nclass = 是"] ;
879 -> 881 ;
882 [label="gini = 0.0\nsamples = 1\nvalue = [1, 0]\nclass = 是"] ;
876 -> 882 ;
883 [label="每股资本公积(元/股)+每股未分配利润(元/股) <= -0.427\ngini = 0.122\nsamples = 168\nvalue = [157, 11]\nclass = 是"] ;
829 -> 883 ;
884 [label="年份（年末） <= 6.393\ngini = 0.085\nsamples = 113\nvalue = [108, 5]\nclass = 是"] ;
883 -> 884 ;
885 [label="超涨或超跌 <= 0.661\ngini = 0.131\nsamples = 71\nvalue = [66, 5]\nclass = 是"] ;
884 -> 885 ;
886 [label="每股净资产(元/股) <= -0.487\ngini = 0.083\nsamples = 46\nvalue = [44, 2]\nclass = 是"] ;
885 -> 886 ;
887 [label="gini = 0.0\nsamples = 12\nvalue = [12, 0]\nclass = 是"] ;
886 -> 887 ;
888 [label="上市时间 <= -0.434\ngini = 0.111\nsamples = 34\nvalue = [32, 2]\nclass = 是"] ;
886 -> 888 ;
889 [label="每股资本公积(元/股)+每股未分配利润(元/股) <= -0.466\ngini = 0.159\nsamples = 23\nvalue = [21, 2]\nclass = 是"] ;
888 -> 889 ;
890 [label="gini = 0.0\nsamples = 14\nvalue = [14, 0]\nclass = 是"] ;
889 -> 890 ;
891 [label="gini = 0.346\nsamples = 9\nvalue = [7, 2]\nclass = 是"] ;
889 -> 891 ;
892 [label="gini = 0.0\nsamples = 11\nvalue = [11, 0]\nclass = 是"] ;
888 -> 892 ;
893 [label="每股现金流量净额(元/股) <= 0.286\ngini = 0.211\nsamples = 25\nvalue = [22, 3]\nclass = 是"] ;
885 -> 893 ;
894 [label="预增或预减 <= -0.451\ngini = 0.227\nsamples = 23\nvalue = [20, 3]\nclass = 是"] ;
893 -> 894 ;
895 [label="gini = 0.5\nsamples = 2\nvalue = [1, 1]\nclass = 是"] ;
894 -> 895 ;
896 [label="每股现金流量净额(元/股) <= -0.149\ngini = 0.172\nsamples = 21\nvalue = [19, 2]\nclass = 是"] ;
894 -> 896 ;
897 [label="gini = 0.0\nsamples = 7\nvalue = [7, 0]\nclass = 是"] ;
896 -> 897 ;
898 [label="gini = 0.245\nsamples = 14\nvalue = [12, 2]\nclass = 是"] ;
896 -> 898 ;
899 [label="gini = 0.0\nsamples = 2\nvalue = [2, 0]\nclass = 是"] ;
893 -> 899 ;
900 [label="gini = 0.0\nsamples = 42\nvalue = [42, 0]\nclass = 是"] ;
884 -> 900 ;
901 [label="每股现金流量净额(元/股) <= 0.188\ngini = 0.194\nsamples = 55\nvalue = [49, 6]\nclass = 是"] ;
883 -> 901 ;
902 [label="每股现金流量净额(元/股) <= -0.275\ngini = 0.127\nsamples = 44\nvalue = [41, 3]\nclass = 是"] ;
901 -> 902 ;
903 [label="实收资本(或股本) <= -0.07\ngini = 0.32\nsamples = 10\nvalue = [8, 2]\nclass = 是"] ;
902 -> 903 ;
904 [label="预增或预减 <= 0.389\ngini = 0.198\nsamples = 9\nvalue = [8, 1]\nclass = 是"] ;
903 -> 904 ;
905 [label="gini = 0.0\nsamples = 8\nvalue = [8, 0]\nclass = 是"] ;
904 -> 905 ;
906 [label="gini = 0.0\nsamples = 1\nvalue = [0, 1]\nclass = 否"] ;
904 -> 906 ;
907 [label="gini = 0.0\nsamples = 1\nvalue = [0, 1]\nclass = 否"] ;
903 -> 907 ;
908 [label="近两年送转比例 <= -0.634\ngini = 0.057\nsamples = 34\nvalue = [33, 1]\nclass = 是"] ;
902 -> 908 ;
909 [label="交易日平均价 <= -0.466\ngini = 0.105\nsamples = 18\nvalue = [17, 1]\nclass = 是"] ;
908 -> 909 ;
910 [label="上市时间 <= -0.524\ngini = 0.444\nsamples = 3\nvalue = [2, 1]\nclass = 是"] ;
909 -> 910 ;
911 [label="gini = 0.0\nsamples = 2\nvalue = [2, 0]\nclass = 是"] ;
910 -> 911 ;
912 [label="gini = 0.0\nsamples = 1\nvalue = [0, 1]\nclass = 否"] ;
910 -> 912 ;
913 [label="gini = 0.0\nsamples = 15\nvalue = [15, 0]\nclass = 是"] ;
909 -> 913 ;
914 [label="gini = 0.0\nsamples = 16\nvalue = [16, 0]\nclass = 是"] ;
908 -> 914 ;
915 [label="每股现金流量净额(元/股) <= 0.778\ngini = 0.397\nsamples = 11\nvalue = [8, 3]\nclass = 是"] ;
901 -> 915 ;
916 [label="每股资本公积(元/股)+每股未分配利润(元/股) <= -0.302\ngini = 0.32\nsamples = 10\nvalue = [8, 2]\nclass = 是"] ;
915 -> 916 ;
917 [label="近两年送转比例 <= -0.728\ngini = 0.198\nsamples = 9\nvalue = [8, 1]\nclass = 是"] ;
916 -> 917 ;
918 [label="gini = 0.0\nsamples = 1\nvalue = [0, 1]\nclass = 否"] ;
917 -> 918 ;
919 [label="gini = 0.0\nsamples = 8\nvalue = [8, 0]\nclass = 是"] ;
917 -> 919 ;
920 [label="gini = 0.0\nsamples = 1\nvalue = [0, 1]\nclass = 否"] ;
916 -> 920 ;
921 [label="gini = 0.0\nsamples = 1\nvalue = [0, 1]\nclass = 否"] ;
915 -> 921 ;
922 [label="营业总收入同必增长(%) <= 0.007\ngini = 0.078\nsamples = 685\nvalue = [657, 28]\nclass = 是"] ;
828 -> 922 ;
923 [label="每股现金流量净额(元/股) <= 0.97\ngini = 0.076\nsamples = 684\nvalue = [657, 27]\nclass = 是"] ;
922 -> 923 ;
924 [label="每股净资产(元/股) <= -0.504\ngini = 0.072\nsamples = 673\nvalue = [648, 25]\nclass = 是"] ;
923 -> 924 ;
925 [label="每股现金流量净额(元/股) <= -0.284\ngini = 0.198\nsamples = 18\nvalue = [16, 2]\nclass = 是"] ;
924 -> 925 ;
926 [label="实收资本(或股本) <= -0.119\ngini = 0.5\nsamples = 4\nvalue = [2, 2]\nclass = 是"] ;
925 -> 926 ;
927 [label="gini = 0.0\nsamples = 1\nvalue = [0, 1]\nclass = 否"] ;
926 -> 927 ;
928 [label="每股净资产(元/股) <= -0.508\ngini = 0.444\nsamples = 3\nvalue = [2, 1]\nclass = 是"] ;
926 -> 928 ;
929 [label="gini = 0.0\nsamples = 1\nvalue = [0, 1]\nclass = 否"] ;
928 -> 929 ;
930 [label="gini = 0.0\nsamples = 2\nvalue = [2, 0]\nclass = 是"] ;
928 -> 930 ;
931 [label="gini = 0.0\nsamples = 14\nvalue = [14, 0]\nclass = 是"] ;
925 -> 931 ;
932 [label="每股净资产(元/股) <= -0.417\ngini = 0.068\nsamples = 655\nvalue = [632, 23]\nclass = 是"] ;
924 -> 932 ;
933 [label="年份（年末） <= 6.515\ngini = 0.046\nsamples = 425\nvalue = [415, 10]\nclass = 是"] ;
932 -> 933 ;
934 [label="每股净资产(元/股) <= -0.427\ngini = 0.051\nsamples = 380\nvalue = [370, 10]\nclass = 是"] ;
933 -> 934 ;
935 [label="每股现金流量净额(元/股) <= 0.25\ngini = 0.057\nsamples = 339\nvalue = [329, 10]\nclass = 是"] ;
934 -> 935 ;
936 [label="gini = 0.05\nsamples = 313\nvalue = [305, 8]\nclass = 是"] ;
935 -> 936 ;
937 [label="gini = 0.142\nsamples = 26\nvalue = [24, 2]\nclass = 是"] ;
935 -> 937 ;
938 [label="gini = 0.0\nsamples = 41\nvalue = [41, 0]\nclass = 是"] ;
934 -> 938 ;
939 [label="gini = 0.0\nsamples = 45\nvalue = [45, 0]\nclass = 是"] ;
933 -> 939 ;
940 [label="预增或预减 <= 0.773\ngini = 0.107\nsamples = 230\nvalue = [217, 13]\nclass = 是"] ;
932 -> 940 ;
941 [label="营业总收入同必增长(%) <= -0.005\ngini = 0.138\nsamples = 161\nvalue = [149, 12]\nclass = 是"] ;
940 -> 941 ;
942 [label="上市时间 <= 0.583\ngini = 0.13\nsamples = 157\nvalue = [146, 11]\nclass = 是"] ;
941 -> 942 ;
943 [label="gini = 0.187\nsamples = 96\nvalue = [86, 10]\nclass = 是"] ;
942 -> 943 ;
944 [label="gini = 0.032\nsamples = 61\nvalue = [60, 1]\nclass = 是"] ;
942 -> 944 ;
945 [label="近两年送转比例 <= -0.651\ngini = 0.375\nsamples = 4\nvalue = [3, 1]\nclass = 是"] ;
941 -> 945 ;
946 [label="gini = 0.0\nsamples = 3\nvalue = [3, 0]\nclass = 是"] ;
945 -> 946 ;
947 [label="gini = 0.0\nsamples = 1\nvalue = [0, 1]\nclass = 否"] ;
945 -> 947 ;
948 [label="近两年送转比例 <= -0.589\ngini = 0.029\nsamples = 69\nvalue = [68, 1]\nclass = 是"] ;
940 -> 948 ;
949 [label="gini = 0.0\nsamples = 33\nvalue = [33, 0]\nclass = 是"] ;
948 -> 949 ;
950 [label="年份（年末） <= 2.365\ngini = 0.054\nsamples = 36\nvalue = [35, 1]\nclass = 是"] ;
948 -> 950 ;
951 [label="gini = 0.18\nsamples = 10\nvalue = [9, 1]\nclass = 是"] ;
950 -> 951 ;
952 [label="gini = 0.0\nsamples = 26\nvalue = [26, 0]\nclass = 是"] ;
950 -> 952 ;
953 [label="实收资本(或股本) <= 0.043\ngini = 0.298\nsamples = 11\nvalue = [9, 2]\nclass = 是"] ;
923 -> 953 ;
954 [label="年份（年末） <= 3.653\ngini = 0.18\nsamples = 10\nvalue = [9, 1]\nclass = 是"] ;
953 -> 954 ;
955 [label="gini = 0.0\nsamples = 6\nvalue = [6, 0]\nclass = 是"] ;
954 -> 955 ;
956 [label="每股资本公积(元/股)+每股未分配利润(元/股) <= -0.431\ngini = 0.375\nsamples = 4\nvalue = [3, 1]\nclass = 是"] ;
954 -> 956 ;
957 [label="gini = 0.0\nsamples = 1\nvalue = [0, 1]\nclass = 否"] ;
956 -> 957 ;
958 [label="gini = 0.0\nsamples = 3\nvalue = [3, 0]\nclass = 是"] ;
956 -> 958 ;
959 [label="gini = 0.0\nsamples = 1\nvalue = [0, 1]\nclass = 否"] ;
953 -> 959 ;
960 [label="gini = 0.0\nsamples = 1\nvalue = [0, 1]\nclass = 否"] ;
922 -> 960 ;
961 [label="上市时间 <= 0.211\ngini = 0.444\nsamples = 3\nvalue = [1, 2]\nclass = 否"] ;
673 -> 961 ;
962 [label="gini = 0.0\nsamples = 1\nvalue = [1, 0]\nclass = 是"] ;
961 -> 962 ;
963 [label="gini = 0.0\nsamples = 2\nvalue = [0, 2]\nclass = 否"] ;
961 -> 963 ;
964 [label="上市时间 <= 1.972\ngini = 0.027\nsamples = 947\nvalue = [934, 13]\nclass = 是"] ;
672 -> 964 ;
965 [label="每股收益(期末摊薄，元/股) <= 0.099\ngini = 0.032\nsamples = 800\nvalue = [787, 13]\nclass = 是"] ;
964 -> 965 ;
966 [label="年份（年末） <= 6.739\ngini = 0.026\nsamples = 772\nvalue = [762, 10]\nclass = 是"] ;
965 -> 966 ;
967 [label="每股资本公积(元/股)+每股未分配利润(元/股) <= -0.381\ngini = 0.032\nsamples = 608\nvalue = [598, 10]\nclass = 是"] ;
966 -> 967 ;
968 [label="超涨或超跌 <= 0.677\ngini = 0.026\nsamples = 598\nvalue = [590, 8]\nclass = 是"] ;
967 -> 968 ;
969 [label="交易日平均价 <= 0.978\ngini = 0.032\nsamples = 491\nvalue = [483, 8]\nclass = 是"] ;
968 -> 969 ;
970 [label="上市时间 <= 1.457\ngini = 0.03\nsamples = 461\nvalue = [454, 7]\nclass = 是"] ;
969 -> 970 ;
971 [label="预增或预减 <= -0.101\ngini = 0.01\nsamples = 191\nvalue = [190, 1]\nclass = 是"] ;
970 -> 971 ;
972 [label="每股资本公积(元/股)+每股未分配利润(元/股) <= -0.629\ngini = 0.057\nsamples = 34\nvalue = [33, 1]\nclass = 是"] ;
971 -> 972 ;
973 [label="近两年送转比例 <= -0.623\ngini = 0.083\nsamples = 23\nvalue = [22, 1]\nclass = 是"] ;
972 -> 973 ;
974 [label="gini = 0.0\nsamples = 20\nvalue = [20, 0]\nclass = 是"] ;
973 -> 974 ;
975 [label="每股资本公积(元/股)+每股未分配利润(元/股) <= -0.781\ngini = 0.444\nsamples = 3\nvalue = [2, 1]\nclass = 是"] ;
973 -> 975 ;
976 [label="gini = 0.0\nsamples = 1\nvalue = [0, 1]\nclass = 否"] ;
975 -> 976 ;
977 [label="gini = 0.0\nsamples = 2\nvalue = [2, 0]\nclass = 是"] ;
975 -> 977 ;
978 [label="gini = 0.0\nsamples = 11\nvalue = [11, 0]\nclass = 是"] ;
972 -> 978 ;
979 [label="gini = 0.0\nsamples = 157\nvalue = [157, 0]\nclass = 是"] ;
971 -> 979 ;
980 [label="上市时间 <= 1.63\ngini = 0.043\nsamples = 270\nvalue = [264, 6]\nclass = 是"] ;
970 -> 980 ;
981 [label="预增或预减 <= -0.872\ngini = 0.071\nsamples = 135\nvalue = [130, 5]\nclass = 是"] ;
980 -> 981 ;
982 [label="gini = 0.0\nsamples = 22\nvalue = [22, 0]\nclass = 是"] ;
981 -> 982 ;
983 [label="近两年送转比例 <= -0.715\ngini = 0.085\nsamples = 113\nvalue = [108, 5]\nclass = 是"] ;
981 -> 983 ;
984 [label="每股资本公积(元/股)+每股未分配利润(元/股) <= -0.571\ngini = 0.041\nsamples = 48\nvalue = [47, 1]\nclass = 是"] ;
983 -> 984 ;
985 [label="gini = 0.0\nsamples = 40\nvalue = [40, 0]\nclass = 是"] ;
984 -> 985 ;
986 [label="gini = 0.219\nsamples = 8\nvalue = [7, 1]\nclass = 是"] ;
984 -> 986 ;
987 [label="近两年送转比例 <= -0.449\ngini = 0.116\nsamples = 65\nvalue = [61, 4]\nclass = 是"] ;
983 -> 987 ;
988 [label="gini = 0.14\nsamples = 53\nvalue = [49, 4]\nclass = 是"] ;
987 -> 988 ;
989 [label="gini = 0.0\nsamples = 12\nvalue = [12, 0]\nclass = 是"] ;
987 -> 989 ;
990 [label="近两年送转比例 <= -0.65\ngini = 0.015\nsamples = 135\nvalue = [134, 1]\nclass = 是"] ;
980 -> 990 ;
991 [label="gini = 0.0\nsamples = 86\nvalue = [86, 0]\nclass = 是"] ;
990 -> 991 ;
992 [label="每股资本公积(元/股)+每股未分配利润(元/股) <= -0.7\ngini = 0.04\nsamples = 49\nvalue = [48, 1]\nclass = 是"] ;
990 -> 992 ;
993 [label="年份（年末） <= 4.527\ngini = 0.133\nsamples = 14\nvalue = [13, 1]\nclass = 是"] ;
992 -> 993 ;
994 [label="gini = 0.375\nsamples = 4\nvalue = [3, 1]\nclass = 是"] ;
993 -> 994 ;
995 [label="gini = 0.0\nsamples = 10\nvalue = [10, 0]\nclass = 是"] ;
993 -> 995 ;
996 [label="gini = 0.0\nsamples = 35\nvalue = [35, 0]\nclass = 是"] ;
992 -> 996 ;
997 [label="营业总收入同必增长(%) <= -0.008\ngini = 0.064\nsamples = 30\nvalue = [29, 1]\nclass = 是"] ;
969 -> 997 ;
998 [label="gini = 0.0\nsamples = 28\nvalue = [28, 0]\nclass = 是"] ;
997 -> 998 ;
999 [label="gini = 0.5\nsamples = 2\nvalue = [1, 1]\nclass = 是"] ;
997 -> 999 ;
1000 [label="gini = 0.0\nsamples = 107\nvalue = [107, 0]\nclass = 是"] ;
968 -> 1000 ;
1001 [label="超涨或超跌 <= 0.95\ngini = 0.32\nsamples = 10\nvalue = [8, 2]\nclass = 是"] ;
967 -> 1001 ;
1002 [label="gini = 0.0\nsamples = 7\nvalue = [7, 0]\nclass = 是"] ;
1001 -> 1002 ;
1003 [label="上市时间 <= 1.535\ngini = 0.444\nsamples = 3\nvalue = [1, 2]\nclass = 否"] ;
1001 -> 1003 ;
1004 [label="gini = 0.0\nsamples = 1\nvalue = [1, 0]\nclass = 是"] ;
1003 -> 1004 ;
1005 [label="gini = 0.0\nsamples = 2\nvalue = [0, 2]\nclass = 否"] ;
1003 -> 1005 ;
1006 [label="gini = 0.0\nsamples = 164\nvalue = [164, 0]\nclass = 是"] ;
966 -> 1006 ;
1007 [label="每股净资产(元/股) <= -0.632\ngini = 0.191\nsamples = 28\nvalue = [25, 3]\nclass = 是"] ;
965 -> 1007 ;
1008 [label="近两年送转比例 <= -0.683\ngini = 0.42\nsamples = 10\nvalue = [7, 3]\nclass = 是"] ;
1007 -> 1008 ;
1009 [label="预增或预减 <= 0.852\ngini = 0.245\nsamples = 7\nvalue = [6, 1]\nclass = 是"] ;
1008 -> 1009 ;
1010 [label="gini = 0.0\nsamples = 5\nvalue = [5, 0]\nclass = 是"] ;
1009 -> 1010 ;
1011 [label="gini = 0.5\nsamples = 2\nvalue = [1, 1]\nclass = 是"] ;
1009 -> 1011 ;
1012 [label="实收资本(或股本) <= -0.098\ngini = 0.444\nsamples = 3\nvalue = [1, 2]\nclass = 否"] ;
1008 -> 1012 ;
1013 [label="gini = 0.0\nsamples = 1\nvalue = [1, 0]\nclass = 是"] ;
1012 -> 1013 ;
1014 [label="gini = 0.0\nsamples = 2\nvalue = [0, 2]\nclass = 否"] ;
1012 -> 1014 ;
1015 [label="gini = 0.0\nsamples = 18\nvalue = [18, 0]\nclass = 是"] ;
1007 -> 1015 ;
1016 [label="gini = 0.0\nsamples = 147\nvalue = [147, 0]\nclass = 是"] ;
964 -> 1016 ;
1017 [label="每股净资产(元/股) <= -0.488\ngini = 0.156\nsamples = 1521\nvalue = [1391, 130]\nclass = 是"] ;
671 -> 1017 ;
1018 [label="每股资本公积(元/股)+每股未分配利润(元/股) <= 0.185\ngini = 0.121\nsamples = 1032\nvalue = [965, 67]\nclass = 是"] ;
1017 -> 1018 ;
1019 [label="每股收益(期末摊薄，元/股) <= 0.318\ngini = 0.12\nsamples = 1031\nvalue = [965, 66]\nclass = 是"] ;
1018 -> 1019 ;
1020 [label="年份（年末） <= 5.594\ngini = 0.111\nsamples = 996\nvalue = [937, 59]\nclass = 是"] ;
1019 -> 1020 ;
1021 [label="每股资本公积(元/股)+每股未分配利润(元/股) <= -0.55\ngini = 0.147\nsamples = 627\nvalue = [577, 50]\nclass = 是"] ;
1020 -> 1021 ;
1022 [label="上市时间 <= -0.396\ngini = 0.13\nsamples = 543\nvalue = [505, 38]\nclass = 是"] ;
1021 -> 1022 ;
1023 [label="每股现金流量净额(元/股) <= 0.579\ngini = 0.162\nsamples = 326\nvalue = [297, 29]\nclass = 是"] ;
1022 -> 1023 ;
1024 [label="超涨或超跌 <= 0.755\ngini = 0.153\nsamples = 323\nvalue = [296, 27]\nclass = 是"] ;
1023 -> 1024 ;
1025 [label="交易日平均价 <= 1.584\ngini = 0.111\nsamples = 204\nvalue = [192, 12]\nclass = 是"] ;
1024 -> 1025 ;
1026 [label="每股现金流量净额(元/股) <= -0.436\ngini = 0.117\nsamples = 193\nvalue = [181, 12]\nclass = 是"] ;
1025 -> 1026 ;
1027 [label="gini = 0.0\nsamples = 8\nvalue = [8, 0]\nclass = 是"] ;
1026 -> 1027 ;
1028 [label="每股现金流量净额(元/股) <= 0.128\ngini = 0.121\nsamples = 185\nvalue = [173, 12]\nclass = 是"] ;
1026 -> 1028 ;
1029 [label="营业总收入同必增长(%) <= -0.006\ngini = 0.107\nsamples = 177\nvalue = [167, 10]\nclass = 是"] ;
1028 -> 1029 ;
1030 [label="gini = 0.091\nsamples = 167\nvalue = [159, 8]\nclass = 是"] ;
1029 -> 1030 ;
1031 [label="gini = 0.32\nsamples = 10\nvalue = [8, 2]\nclass = 是"] ;
1029 -> 1031 ;
1032 [label="交易日平均价 <= -0.345\ngini = 0.375\nsamples = 8\nvalue = [6, 2]\nclass = 是"] ;
1028 -> 1032 ;
1033 [label="gini = 0.0\nsamples = 5\nvalue = [5, 0]\nclass = 是"] ;
1032 -> 1033 ;
1034 [label="gini = 0.444\nsamples = 3\nvalue = [1, 2]\nclass = 否"] ;
1032 -> 1034 ;
1035 [label="gini = 0.0\nsamples = 11\nvalue = [11, 0]\nclass = 是"] ;
1025 -> 1035 ;
1036 [label="近两年送转比例 <= 1.922\ngini = 0.22\nsamples = 119\nvalue = [104, 15]\nclass = 是"] ;
1024 -> 1036 ;
1037 [label="实收资本(或股本) <= 0.068\ngini = 0.196\nsamples = 109\nvalue = [97, 12]\nclass = 是"] ;
1036 -> 1037 ;
1038 [label="预增或预减 <= -0.716\ngini = 0.174\nsamples = 104\nvalue = [94, 10]\nclass = 是"] ;
1037 -> 1038 ;
1039 [label="每股净资产(元/股) <= -0.65\ngini = 0.36\nsamples = 17\nvalue = [13, 4]\nclass = 是"] ;
1038 -> 1039 ;
1040 [label="gini = 0.0\nsamples = 9\nvalue = [9, 0]\nclass = 是"] ;
1039 -> 1040 ;
1041 [label="gini = 0.5\nsamples = 8\nvalue = [4, 4]\nclass = 是"] ;
1039 -> 1041 ;
1042 [label="交易日平均价 <= 0.153\ngini = 0.128\nsamples = 87\nvalue = [81, 6]\nclass = 是"] ;
1038 -> 1042 ;
1043 [label="gini = 0.17\nsamples = 64\nvalue = [58, 6]\nclass = 是"] ;
1042 -> 1043 ;
1044 [label="gini = 0.0\nsamples = 23\nvalue = [23, 0]\nclass = 是"] ;
1042 -> 1044 ;
1045 [label="年份（年末） <= 4.442\ngini = 0.48\nsamples = 5\nvalue = [3, 2]\nclass = 是"] ;
1037 -> 1045 ;
1046 [label="gini = 0.0\nsamples = 2\nvalue = [0, 2]\nclass = 否"] ;
1045 -> 1046 ;
1047 [label="gini = 0.0\nsamples = 3\nvalue = [3, 0]\nclass = 是"] ;
1045 -> 1047 ;
1048 [label="每股资本公积(元/股)+每股未分配利润(元/股) <= -0.624\ngini = 0.42\nsamples = 10\nvalue = [7, 3]\nclass = 是"] ;
1036 -> 1048 ;
1049 [label="营业总收入同必增长(%) <= -0.008\ngini = 0.5\nsamples = 6\nvalue = [3, 3]\nclass = 是"] ;
1048 -> 1049 ;
1050 [label="gini = 0.0\nsamples = 2\nvalue = [2, 0]\nclass = 是"] ;
1049 -> 1050 ;
1051 [label="每股净资产(元/股) <= -0.642\ngini = 0.375\nsamples = 4\nvalue = [1, 3]\nclass = 否"] ;
1049 -> 1051 ;
1052 [label="gini = 0.0\nsamples = 3\nvalue = [0, 3]\nclass = 否"] ;
1051 -> 1052 ;
1053 [label="gini = 0.0\nsamples = 1\nvalue = [1, 0]\nclass = 是"] ;
1051 -> 1053 ;
1054 [label="gini = 0.0\nsamples = 4\nvalue = [4, 0]\nclass = 是"] ;
1048 -> 1054 ;
1055 [label="近两年送转比例 <= 1.013\ngini = 0.444\nsamples = 3\nvalue = [1, 2]\nclass = 否"] ;
1023 -> 1055 ;
1056 [label="gini = 0.0\nsamples = 1\nvalue = [1, 0]\nclass = 是"] ;
1055 -> 1056 ;
1057 [label="gini = 0.0\nsamples = 2\nvalue = [0, 2]\nclass = 否"] ;
1055 -> 1057 ;
1058 [label="每股现金流量净额(元/股) <= 0.399\ngini = 0.08\nsamples = 217\nvalue = [208, 9]\nclass = 是"] ;
1022 -> 1058 ;
1059 [label="超涨或超跌 <= 0.233\ngini = 0.067\nsamples = 202\nvalue = [195, 7]\nclass = 是"] ;
1058 -> 1059 ;
1060 [label="每股资本公积(元/股)+每股未分配利润(元/股) <= -0.716\ngini = 0.084\nsamples = 159\nvalue = [152, 7]\nclass = 是"] ;
1059 -> 1060 ;
1061 [label="年份（年末） <= 3.419\ngini = 0.105\nsamples = 90\nvalue = [85, 5]\nclass = 是"] ;
1060 -> 1061 ;
1062 [label="每股净资产(元/股) <= -0.776\ngini = 0.188\nsamples = 38\nvalue = [34, 4]\nclass = 是"] ;
1061 -> 1062 ;
1063 [label="gini = 0.0\nsamples = 12\nvalue = [12, 0]\nclass = 是"] ;
1062 -> 1063 ;
1064 [label="每股收益(期末摊薄，元/股) <= -0.473\ngini = 0.26\nsamples = 26\nvalue = [22, 4]\nclass = 是"] ;
1062 -> 1064 ;
1065 [label="gini = 0.0\nsamples = 8\nvalue = [8, 0]\nclass = 是"] ;
1064 -> 1065 ;
1066 [label="gini = 0.346\nsamples = 18\nvalue = [14, 4]\nclass = 是"] ;
1064 -> 1066 ;
1067 [label="每股净资产(元/股) <= -0.687\ngini = 0.038\nsamples = 52\nvalue = [51, 1]\nclass = 是"] ;
1061 -> 1067 ;
1068 [label="gini = 0.0\nsamples = 44\nvalue = [44, 0]\nclass = 是"] ;
1067 -> 1068 ;
1069 [label="每股收益(期末摊薄，元/股) <= -0.312\ngini = 0.219\nsamples = 8\nvalue = [7, 1]\nclass = 是"] ;
1067 -> 1069 ;
1070 [label="gini = 0.32\nsamples = 5\nvalue = [4, 1]\nclass = 是"] ;
1069 -> 1070 ;
1071 [label="gini = 0.0\nsamples = 3\nvalue = [3, 0]\nclass = 是"] ;
1069 -> 1071 ;
